tree
version=v2
num_class=10
num_tree_per_iteration=10
label_index=0
max_feature_idx=783
objective=multiclass num_class:10
feature_names=Column_0 Column_1 Column_2 Column_3 Column_4 Column_5 Column_6 Column_7 Column_8 Column_9 Column_10 Column_11 Column_12 Column_13 Column_14 Column_15 Column_16 Column_17 Column_18 Column_19 Column_20 Column_21 Column_22 Column_23 Column_24 Column_25 Column_26 Column_27 Column_28 Column_29 Column_30 Column_31 Column_32 Column_33 Column_34 Column_35 Column_36 Column_37 Column_38 Column_39 Column_40 Column_41 Column_42 Column_43 Column_44 Column_45 Column_46 Column_47 Column_48 Column_49 Column_50 Column_51 Column_52 Column_53 Column_54 Column_55 Column_56 Column_57 Column_58 Column_59 Column_60 Column_61 Column_62 Column_63 Column_64 Column_65 Column_66 Column_67 Column_68 Column_69 Column_70 Column_71 Column_72 Column_73 Column_74 Column_75 Column_76 Column_77 Column_78 Column_79 Column_80 Column_81 Column_82 Column_83 Column_84 Column_85 Column_86 Column_87 Column_88 Column_89 Column_90 Column_91 Column_92 Column_93 Column_94 Column_95 Column_96 Column_97 Column_98 Column_99 Column_100 Column_101 Column_102 Column_103 Column_104 Column_105 Column_106 Column_107 Column_108 Column_109 Column_110 Column_111 Column_112 Column_113 Column_114 Column_115 Column_116 Column_117 Column_118 Column_119 Column_120 Column_121 Column_122 Column_123 Column_124 Column_125 Column_126 Column_127 Column_128 Column_129 Column_130 Column_131 Column_132 Column_133 Column_134 Column_135 Column_136 Column_137 Column_138 Column_139 Column_140 Column_141 Column_142 Column_143 Column_144 Column_145 Column_146 Column_147 Column_148 Column_149 Column_150 Column_151 Column_152 Column_153 Column_154 Column_155 Column_156 Column_157 Column_158 Column_159 Column_160 Column_161 Column_162 Column_163 Column_164 Column_165 Column_166 Column_167 Column_168 Column_169 Column_170 Column_171 Column_172 Column_173 Column_174 Column_175 Column_176 Column_177 Column_178 Column_179 Column_180 Column_181 Column_182 Column_183 Column_184 Column_185 Column_186 Column_187 Column_188 Column_189 Column_190 Column_191 Column_192 Column_193 Column_194 Column_195 Column_196 Column_197 Column_198 Column_199 Column_200 Column_201 Column_202 Column_203 Column_204 Column_205 Column_206 Column_207 Column_208 Column_209 Column_210 Column_211 Column_212 Column_213 Column_214 Column_215 Column_216 Column_217 Column_218 Column_219 Column_220 Column_221 Column_222 Column_223 Column_224 Column_225 Column_226 Column_227 Column_228 Column_229 Column_230 Column_231 Column_232 Column_233 Column_234 Column_235 Column_236 Column_237 Column_238 Column_239 Column_240 Column_241 Column_242 Column_243 Column_244 Column_245 Column_246 Column_247 Column_248 Column_249 Column_250 Column_251 Column_252 Column_253 Column_254 Column_255 Column_256 Column_257 Column_258 Column_259 Column_260 Column_261 Column_262 Column_263 Column_264 Column_265 Column_266 Column_267 Column_268 Column_269 Column_270 Column_271 Column_272 Column_273 Column_274 Column_275 Column_276 Column_277 Column_278 Column_279 Column_280 Column_281 Column_282 Column_283 Column_284 Column_285 Column_286 Column_287 Column_288 Column_289 Column_290 Column_291 Column_292 Column_293 Column_294 Column_295 Column_296 Column_297 Column_298 Column_299 Column_300 Column_301 Column_302 Column_303 Column_304 Column_305 Column_306 Column_307 Column_308 Column_309 Column_310 Column_311 Column_312 Column_313 Column_314 Column_315 Column_316 Column_317 Column_318 Column_319 Column_320 Column_321 Column_322 Column_323 Column_324 Column_325 Column_326 Column_327 Column_328 Column_329 Column_330 Column_331 Column_332 Column_333 Column_334 Column_335 Column_336 Column_337 Column_338 Column_339 Column_340 Column_341 Column_342 Column_343 Column_344 Column_345 Column_346 Column_347 Column_348 Column_349 Column_350 Column_351 Column_352 Column_353 Column_354 Column_355 Column_356 Column_357 Column_358 Column_359 Column_360 Column_361 Column_362 Column_363 Column_364 Column_365 Column_366 Column_367 Column_368 Column_369 Column_370 Column_371 Column_372 Column_373 Column_374 Column_375 Column_376 Column_377 Column_378 Column_379 Column_380 Column_381 Column_382 Column_383 Column_384 Column_385 Column_386 Column_387 Column_388 Column_389 Column_390 Column_391 Column_392 Column_393 Column_394 Column_395 Column_396 Column_397 Column_398 Column_399 Column_400 Column_401 Column_402 Column_403 Column_404 Column_405 Column_406 Column_407 Column_408 Column_409 Column_410 Column_411 Column_412 Column_413 Column_414 Column_415 Column_416 Column_417 Column_418 Column_419 Column_420 Column_421 Column_422 Column_423 Column_424 Column_425 Column_426 Column_427 Column_428 Column_429 Column_430 Column_431 Column_432 Column_433 Column_434 Column_435 Column_436 Column_437 Column_438 Column_439 Column_440 Column_441 Column_442 Column_443 Column_444 Column_445 Column_446 Column_447 Column_448 Column_449 Column_450 Column_451 Column_452 Column_453 Column_454 Column_455 Column_456 Column_457 Column_458 Column_459 Column_460 Column_461 Column_462 Column_463 Column_464 Column_465 Column_466 Column_467 Column_468 Column_469 Column_470 Column_471 Column_472 Column_473 Column_474 Column_475 Column_476 Column_477 Column_478 Column_479 Column_480 Column_481 Column_482 Column_483 Column_484 Column_485 Column_486 Column_487 Column_488 Column_489 Column_490 Column_491 Column_492 Column_493 Column_494 Column_495 Column_496 Column_497 Column_498 Column_499 Column_500 Column_501 Column_502 Column_503 Column_504 Column_505 Column_506 Column_507 Column_508 Column_509 Column_510 Column_511 Column_512 Column_513 Column_514 Column_515 Column_516 Column_517 Column_518 Column_519 Column_520 Column_521 Column_522 Column_523 Column_524 Column_525 Column_526 Column_527 Column_528 Column_529 Column_530 Column_531 Column_532 Column_533 Column_534 Column_535 Column_536 Column_537 Column_538 Column_539 Column_540 Column_541 Column_542 Column_543 Column_544 Column_545 Column_546 Column_547 Column_548 Column_549 Column_550 Column_551 Column_552 Column_553 Column_554 Column_555 Column_556 Column_557 Column_558 Column_559 Column_560 Column_561 Column_562 Column_563 Column_564 Column_565 Column_566 Column_567 Column_568 Column_569 Column_570 Column_571 Column_572 Column_573 Column_574 Column_575 Column_576 Column_577 Column_578 Column_579 Column_580 Column_581 Column_582 Column_583 Column_584 Column_585 Column_586 Column_587 Column_588 Column_589 Column_590 Column_591 Column_592 Column_593 Column_594 Column_595 Column_596 Column_597 Column_598 Column_599 Column_600 Column_601 Column_602 Column_603 Column_604 Column_605 Column_606 Column_607 Column_608 Column_609 Column_610 Column_611 Column_612 Column_613 Column_614 Column_615 Column_616 Column_617 Column_618 Column_619 Column_620 Column_621 Column_622 Column_623 Column_624 Column_625 Column_626 Column_627 Column_628 Column_629 Column_630 Column_631 Column_632 Column_633 Column_634 Column_635 Column_636 Column_637 Column_638 Column_639 Column_640 Column_641 Column_642 Column_643 Column_644 Column_645 Column_646 Column_647 Column_648 Column_649 Column_650 Column_651 Column_652 Column_653 Column_654 Column_655 Column_656 Column_657 Column_658 Column_659 Column_660 Column_661 Column_662 Column_663 Column_664 Column_665 Column_666 Column_667 Column_668 Column_669 Column_670 Column_671 Column_672 Column_673 Column_674 Column_675 Column_676 Column_677 Column_678 Column_679 Column_680 Column_681 Column_682 Column_683 Column_684 Column_685 Column_686 Column_687 Column_688 Column_689 Column_690 Column_691 Column_692 Column_693 Column_694 Column_695 Column_696 Column_697 Column_698 Column_699 Column_700 Column_701 Column_702 Column_703 Column_704 Column_705 Column_706 Column_707 Column_708 Column_709 Column_710 Column_711 Column_712 Column_713 Column_714 Column_715 Column_716 Column_717 Column_718 Column_719 Column_720 Column_721 Column_722 Column_723 Column_724 Column_725 Column_726 Column_727 Column_728 Column_729 Column_730 Column_731 Column_732 Column_733 Column_734 Column_735 Column_736 Column_737 Column_738 Column_739 Column_740 Column_741 Column_742 Column_743 Column_744 Column_745 Column_746 Column_747 Column_748 Column_749 Column_750 Column_751 Column_752 Column_753 Column_754 Column_755 Column_756 Column_757 Column_758 Column_759 Column_760 Column_761 Column_762 Column_763 Column_764 Column_765 Column_766 Column_767 Column_768 Column_769 Column_770 Column_771 Column_772 Column_773 Column_774 Column_775 Column_776 Column_777 Column_778 Column_779 Column_780 Column_781 Column_782 Column_783
feature_infos=none none none none none none none none none none none none none none none none none none none none none none none none none none none none none none none none none none none none none [0:0.99607843160629272] [0:1] [0:1] [0:1] [0:1] [0:1] [0:1] [0:1] [0:1] [0:1] [0:1] none none none none none none none none none none none none none none [0:0.91764706373214722] [0:1] [0:1] [0:1] [0:1] [0:1] [0:1] [0:1] [0:1] [0:1] [0:1] [0:1] [0:1] [0:1] [0:1] [0:1] [0:1] [0:1] none none none none none none none none none [0:1] [0:1] [0:1] [0:1] [0:1] [0:1] [0:1] [0:1] [0:1] [0:1] [0:1] [0:1] [0:1] [0:1] [0:1] [0:1] [0:1] [0:1] [0:1] [0:1] none none none none none none none [0:0.99607843160629272] [0:1] [0:1] [0:1] [0:1] [0:1] [0:1] [0:1] [0:1] [0:1] [0:1] [0:1] [0:1] [0:1] [0:1] [0:1] [0:1] [0:1] [0:1] [0:1] [0:1] [0:0.96078431606292725] none none none none none [0:1] [0:1] [0:1] [0:1] [0:1] [0:1] [0:1] [0:1] [0:1] [0:1] [0:1] [0:1] [0:1] [0:1] [0:1] [0:1] [0:1] [0:1] [0:1] [0:1] [0:1] [0:1] [0:1] [0:0.99607843160629272] none none none [0:0.82352942228317261] [0:1] [0:1] [0:1] [0:1] [0:1] [0:1] [0:1] [0:1] [0:1] [0:1] [0:1] [0:1] [0:1] [0:1] [0:1] [0:1] [0:1] [0:1] [0:1] [0:1] [0:1] [0:1] [0:1] [0:0.99607843160629272] none none none [0:1] [0:1] [0:1] [0:1] [0:1] [0:1] [0:1] [0:1] [0:1] [0:1] [0:1] [0:1] [0:1] [0:1] [0:1] [0:1] [0:1] [0:1] [0:1] [0:1] [0:1] [0:1] [0:1] [0:1] [0:1] none none [0:0.98823529481887817] [0:1] [0:1] [0:1] [0:1] [0:1] [0:1] [0:1] [0:1] [0:1] [0:1] [0:1] [0:1] [0:1] [0:1] [0:1] [0:1] [0:1] [0:1] [0:1] [0:1] [0:1] [0:1] [0:1] [0:1] [0:0.99607843160629272] none none [0:0.99607843160629272] [0:1] [0:1] [0:1] [0:1] [0:1] [0:1] [0:1] [0:1] [0:1] [0:1] [0:1] [0:1] [0:1] [0:1] [0:1] [0:1] [0:1] [0:1] [0:1] [0:1] [0:1] [0:1] [0:1] [0:1] [0:1] none none [0:1] [0:1] [0:1] [0:1] [0:1] [0:1] [0:1] [0:1] [0:1] [0:1] [0:1] [0:1] [0:1] [0:1] [0:1] [0:1] [0:1] [0:1] [0:1] [0:1] [0:1] [0:1] [0:1] [0:1] [0:1] [0:0.99607843160629272] none none [0:1] [0:1] [0:1] [0:1] [0:1] [0:1] [0:1] [0:1] [0:1] [0:1] [0:1] [0:1] [0:1] [0:1] [0:1] [0:1] [0:1] [0:1] [0:1] [0:1] [0:1] [0:1] [0:1] [0:1] [0:1] [0:0.99215686321258545] none none [0:1] [0:1] [0:1] [0:1] [0:1] [0:1] [0:1] [0:1] [0:1] [0:1] [0:1] [0:1] [0:1] [0:1] [0:1] [0:1] [0:1] [0:1] [0:1] [0:1] [0:1] [0:1] [0:1] [0:1] [0:0.99607843160629272] [0:0.98823529481887817] none none none [0:1] [0:1] [0:1] [0:1] [0:1] [0:1] [0:1] [0:1] [0:1] [0:1] [0:1] [0:1] [0:1] [0:1] [0:1] [0:1] [0:1] [0:1] [0:1] [0:1] [0:1] [0:1] [0:1] [0:0.99607843160629272] [0:0.98823529481887817] none none none [0:0.99607843160629272] [0:1] [0:1] [0:1] [0:1] [0:1] [0:1] [0:1] [0:1] [0:1] [0:1] [0:1] [0:1] [0:1] [0:1] [0:1] [0:1] [0:1] [0:1] [0:1] [0:1] [0:1] [0:1] [0:0.99607843160629272] [0:0.99607843160629272] none none none [0:0.99607843160629272] [0:1] [0:1] [0:1] [0:1] [0:1] [0:1] [0:1] [0:1] [0:1] [0:1] [0:1] [0:1] [0:1] [0:1] [0:1] [0:1] [0:1] [0:1] [0:1] [0:1] [0:1] [0:1] [0:1] [0:0.99215686321258545] none none none [0:0.99607843160629272] [0:1] [0:1] [0:1] [0:1] [0:1] [0:1] [0:1] [0:1] [0:1] [0:1] [0:1] [0:1] [0:1] [0:1] [0:1] [0:1] [0:1] [0:1] [0:1] [0:1] [0:1] [0:1] [0:1] [0:0.99607843160629272] none none none [0:0.99607843160629272] [0:1] [0:1] [0:1] [0:1] [0:1] [0:1] [0:1] [0:1] [0:1] [0:1] [0:1] [0:1] [0:1] [0:1] [0:1] [0:1] [0:1] [0:1] [0:1] [0:1] [0:1] [0:1] [0:1] [0:0.99215686321258545] none none none [0:1] [0:1] [0:1] [0:1] [0:1] [0:1] [0:1] [0:1] [0:1] [0:1] [0:1] [0:1] [0:1] [0:1] [0:1] [0:1] [0:1] [0:1] [0:1] [0:1] [0:1] [0:1] [0:1] [0:1] [0:1] none none none [0:1] [0:1] [0:1] [0:1] [0:1] [0:1] [0:1] [0:1] [0:1] [0:1] [0:1] [0:1] [0:1] [0:1] [0:1] [0:1] [0:1] [0:1] [0:1] [0:1] [0:1] [0:1] [0:1] [0:1] [0:0.99215686321258545] none none none [0:1] [0:1] [0:1] [0:1] [0:1] [0:1] [0:1] [0:1] [0:1] [0:1] [0:1] [0:1] [0:1] [0:1] [0:1] [0:1] [0:1] [0:1] [0:1] [0:1] [0:1] [0:1] [0:1] [0:1] [0:1] none none none [0:1] [0:1] [0:1] [0:1] [0:1] [0:1] [0:1] [0:1] [0:1] [0:1] [0:1] [0:1] [0:1] [0:1] [0:1] [0:1] [0:1] [0:1] [0:1] [0:1] [0:1] [0:1] [0:1] [0:1] [0:0.98823529481887817] none none none [0:1] [0:1] [0:1] [0:1] [0:1] [0:1] [0:1] [0:1] [0:1] [0:1] [0:1] [0:1] [0:1] [0:1] [0:1] [0:1] [0:1] [0:1] [0:1] [0:1] [0:1] [0:1] [0:1] [0:0.99607843160629272] none none none none [0:0.85098040103912354] [0:1] [0:1] [0:1] [0:1] [0:1] [0:1] [0:1] [0:1] [0:1] [0:1] [0:1] [0:1] [0:1] [0:1] [0:1] [0:1] [0:1] [0:1] [0:1] [0:1] [0:1] [0:0.99607843160629272] [0:0.99607843160629272] none none none none none [0:0.99215686321258545] [0:1] [0:1] [0:1] [0:1] [0:1] [0:1] [0:1] [0:1] [0:1] [0:1] [0:1] [0:1] [0:1] [0:1] [0:1] [0:1] [0:1] [0:1] [0:1] [0:1] [0:0.99607843160629272] none none none none none none none [0:1] [0:1] [0:1] [0:1] [0:1] [0:1] [0:1] [0:1] [0:1] [0:1] [0:1] [0:1] [0:1] [0:1] [0:1] [0:1] [0:1] [0:1] [0:1] [0:0.99215686321258545] [0:0.99215686321258545] none none none none none none none none [0:1] [0:1] [0:1] [0:1] [0:1] [0:1] [0:1] [0:1] [0:1] [0:1] [0:1] [0:1] [0:1] [0:1] [0:1] [0:1] [0:0.99607843160629272] [0:1] none none none none none none none none none none none [0:0.90588235855102539] [0:0.99607843160629272] [0:0.99607843160629272] [0:1] [0:1] [0:1] [0:1] [0:1] [0:1] [0:1] [0:1] [0:1] [0:0.99607843160629272] [0:0.99607843160629272] [0:0.99215686321258545] none none none none none none none
tree_sizes=2516 2520 2538 2532 2531 2548 2524 2550 2521 2546 2546 2570 2593 2582 2586 2589 2577 2588 2568 2566 2552 2573 2591 2580 2597 2598 2569 2581 2579 2589 2545 2575 2590 2578 2568 2605 2569 2592 2575 2587 2559 2571 2596 2597 2595 2600 2567 2605 2578 2597 2580 2589 2610 2591 2591 2605 2580 2592 2585 2589 2558 2590 2607 2595 2587 2623 2570 2596 2587 2607 2567 2563 2619 2605 2600 2620 2572 2596 2607 2612 2570 2576 2619 2598 2595 2624 2592 2605 2605 2615 2576 2589 2622 2619 2605 2609 2590 2595 2616 2618 2582 2582 2625 2606 2627 2620 2594 2621 2620 2608 2585 2592 2623 2619 2609 2624 2603 2614 2614 2630 2602 2588 2617 2613 2602 2622 2622 2599 2610 2615 2582 2590 2614 2618 2607 2617 2619 2607 2598 2630 2584 2602 2629 2611 2619 2633 2607 2607 2615 2632 2612 2592 2608 2617 2600 2625 2614 2602 2614 2621 2589 2593 2611 2616 2616 2624 2613 2606 2623 2628 2604 2591 2624 2617 2618 2618 2601 2607 2629 2633 2589 2597 2610 2627 2623 2612 2603 2599 2630 2624 2594 2603 2620 2628 2618 2628 2613 2611 2625 2642 2591 2593 2624 2633 2611 2614 2609 2608 2631 2625 2596 2608 2622 2625 2606 2625 2610 2602 2640 2622 2601 2604 2610 2624 2622 2611 2603 2638 2616 2636 2602 2609 2632 2628 2627 2628 2613 2599 2620 2625 2599 2602 2629 2625 2624 2634 2609 2605 2632 2618 2602 2607 2636 2641 2626 2621 2613 2617 2635 2623 2601 2598 2618 2622 2640 2635 2609 2612 2636 2626 2598 2583 2623 2621 2631 2619 2599 2609 2637 2635 2598 2594 2637 2623 2628 2631 2617 2596 2642 2623 2612 2603 2630 2625 2625 2620 2625 2616 2655 2631 2605 2602 2635 2610 2629 2622 2614 2613 2625 2637 2598 2602 2637 2619 2632 2622 2616 2620 2642 2631 2606 2616 2616 2618 2611 2626 2598 2599 2597 2622 2594 2599 2644 2632 2625 2630 2622 2610 2636 2628 2596 2611 2642 2620 2636 2627 2617 2611 2632 2636 2595 2596 2643 2644 2611 2606 2615 2630 2635 2634 2599 2603 2635 2614 2641 2648 2615 2621 2633 2645 2597 2606 2634 2629 2634 2619 2599 2619 2637 2619 2611 2605 2629 2653 2622 2633 2628 2635 2617 2624 2592 2611 2639 2619 2636 2636 2610 2617 2623 2629 2599 2604 2639 2629 2640 2641 2627 2630 2630 2618 2590 2600 2621 2629 2635 2622 2599 2625 2628 2631 2602 2616 2631 2634 2637 2637 2598 2631 2630 2643 2591 2608 2625 2629 2624 2621 2618 2623 2624 2617 2605 2614 2631 2640 2630 2630 2612 2621 2621 2614 2594 2603 2634 2628 2637 2632 2620 2598 2637 2638 2596 2610 2638 2629 2648 2622 2615 2634 2637 2620 2596 2612 2643 2628 2634 2637 2611 2605 2650 2622 2606 2611 2618 2612 2628 2614 2614 2611 2631 2622 2603 2606 2632 2636 2622 2633 2614 2613 2651 2627 2608 2613 2624 2603 2629 2619 2609 2627 2630 2613 2609 2618 2632 2616 2624 2628 2609 2621 2624 2643 2617 2625 2626 2626 2637 2633 2608 2617 2623 2617 2611 2615 2632 2620 2624 2630 2609 2613 2648 2623 2615 2620 2640 2618 2610 2615 2611 2631 2631 2631 2611 2622 2640 2616 2611 2618 2606 2623 2628 2625 2609 2622 2648 2610 2639 2605 2616 2623 2640 2633 2615 2609 2628 2620 2631 2619 2621 2632 2634 2629 2607 2620 2643 2628 2614 2628 2626 2620 2632 2619 2607 2616 2635 2607 2624 2623 2603 2640 2634 2636 2616 2611 2631 2616 2629 2634 2622 2636 2631 2630 2620 2608 2639 2610 2625 2641 2618 2617 2636 2618 2615 2627 2635 2611 2638 2628 2626 2620 2640 2633 2607 2618 2631 2620 2617 2629 2616 2626 2632 2625 2610 2602 2628 2620 2628 2624 2611 2644 2647 2637 2625 2618 2638 2617 2631 2635 2631 2636 2638 2624 2607 2620 2641 2631 2626 2621 2619 2637 2619 2637 2617 2604 2636 2637 2626 2631 2629 2645 2633 2635 2613 2633 2638 2619 2632 2639 2614 2622 2629 2656 2610 2627 2629 2623 2634 2616 2610 2632 2634 2630 2616 2636 2623 2630 2638 2650 2624 2631 2642 2636 2622 2627 2621 2620 2648 2628 2634 2619 2630 2635 2613 2625 2647 2631 2627 2630 2623 2633 2631 2651 2621 2631 2645 2633 2640 2626 2628 2634 2638 2626 2624 2619 2626 2625 2637 2628 2634 2640 2647 2636 2637 2621 2633 2611 2630 2636 2643 2626 2648 2630 2626 2618 2646 2655 2633 2623 2623 2625 2638 2648 2634 2613 2645 2620 2646 2634 2623 2638 2635 2620 2616 2622 2638 2631 2637 2643 2625 2635 2633 2645 2630 2631 2636 2632 2633 2635 2640 2646 2638 2653 2639 2619 2632 2638 2643 2634 2625 2641 2626 2646 2619 2631 2638 2646 2630 2653 2622 2620 2639 2636 2639 2626 2633 2640 2643 2648 2627 2629 2651 2643 2632 2626 2635 2641 2636 2633 2631 2633 2641 2639 2631 2623 2640 2637 2644 2627 2617 2625 2641 2632 2631 2626 2643 2634 2642 2635 2626 2633 2653 2638 2633 2631 2631 2650 2631 2647 2636 2633 2645 2631 2635 2628 2657 2639 2629 2631 2635 2637 2623 2640 2634 2649 2642 2623 2640 2635 2635 2630 2640 2647 2645 2637 2642 2652 2639 2630 2645 2650 2653 2651 2648 2636 2642 2614 2655 2634 2632 2618 2657 2645 2660 2640 2657 2647 2646 2636 2652 2643 2643 2649 2644 2648 2648 2641 2636 2640 2630 2623 2647 2654 2644 2649 2632 2631 2647 2633 2651 2643 2637 2662 2641 2647 2628 2634 2650 2631 2645 2630 2649 2656 2655 2652 2644 2645 2648 2632 2649 2627 2638 2651 2643 2659 2639 2642 2629 2627 2632 2634 2647 2626 2649 2642 2647 2640 2638 2643 2635 2632 2629 2670 2653 2640 2650 2645 2637 2643 2658 2630 2640 2644 2656 2652 2653 2643 2654 2642 2653 2630 2628 2642

Tree=0
num_leaves=31
num_cat=0
split_feature=358 435 407 512 489 539 328 186 489 379 360 401 542 490 350 351 657 511 399 658 267 382 626 343 267 538 461 427 273 351
split_gain=6795.29 4857.5 1056.88 1298.62 1510.67 990.007 905.199 350.943 322.631 228.789 214.814 171.646 168.44 218.26 318.861 132.78 131.747 120.934 190.782 114.041 95.6951 94.4002 89.795 83.2024 63.4934 122.747 116.243 55.4624 48.863 58.7675
threshold=0.13529412448406222 1.0000000180025095e-35 1.0000000180025095e-35 0.34705883264541632 0.021568628028035167 0.025490196421742443 0.080392159521579756 1.0000000180025095e-35 0.66470590233802807 0.41372549533844 0.44117647409439092 0.056862745434045799 0.61372551321983349 1.0000000180025095e-35 0.060784315690398223 0.052941177040338523 0.021568628028035167 0.47254902124404913 0.40196079015731817 0.12352941557765008 0.74313727021217357 0.021568628028035167 1.0000000180025095e-35 0.037254903465509422 0.93921568989753734 0.33921569585800176 0.59803923964500438 0.9784313738346101 0.013725490774959328 0.43333333730697637
decision_type=2 2 2 2 2 2 2 2 2 2 2 2 2 2 2 2 2 2 2 2 2 2 2 2 2 2 2 2 2 2
left_child=2 5 3 10 6 7 15 -2 9 28 12 23 17 14 19 16 -5 -1 -19 -14 -11 -9 -13 -8 -3 -26 -27 -10 29 -7
right_child=1 24 -4 4 -6 8 11 21 27 20 -12 22 13 -15 -16 -17 -18 18 -20 -21 -22 -23 -24 -25 25 26 -28 -29 -30 -31
leaf_value=-2.3682364284423172 -2.3049850608609792 -2.3646368462533189 -2.3724581266770288 -2.2981418178740571 -2.3547565266973862 -1.8897310724571696 -2.3138395526994788 -1.8796634360817919 -2.3591390652950195 -2.3279102591186969 -1.8634333242372263 -2.1482665515894008 -2.2002625138729783 -2.3648322585763393 -2.3324189180104038 -2.3567398422291479 -1.9349143877650472 -2.3375096556970347 -1.9191101041767413 -1.8569742545974268 -1.9077852260278563 -2.2301995830665531 -1.8215211606944297 -1.9473091838447645 -2.3601172983171765 -1.8599948195172156 -2.2898501515913039 -2.0124993167378382 -1.8176053681530644 -2.2797007895839991
leaf_count=5163 427 2015 32567 112 1137 234 66 203 78 74 53 50 78 515 260 301 113 203 88 181 52 55 903 74 251 68 74 39 2542 24
internal_value=0 2.33253 -0.341878 0.363913 1.73044 4.02968 3.20298 1.45186 4.60996 4.7645 -0.211861 4.43409 -0.250735 0.62754 1.71375 0.644794 2.02401 -0.417243 1.07139 3.57763 1.63597 3.63732 4.79458 1.9802 -0.29495 0.577707 2.34118 0.745293 4.90528 3.92115
internal_count=48000 6136 41864 9297 2756 3728 1619 685 3043 2926 6541 1093 6488 1034 519 526 225 5454 291 259 126 258 953 140 2408 393 142 117 2800 258
shrinkage=1


Tree=1
num_leaves=31
num_cat=0
split_feature=437 406 235 578 347 293 300 406 403 353 214 178 183 350 549 510 354 181 547 323 466 489 262 374 487 237 294 234 404 578
split_gain=4403.62 6286.2 3392.68 1453.51 870.73 575.504 422.824 341.081 364.445 408.926 314.666 246.837 168.973 160.748 113.128 106.235 83.1274 72.8434 86.7906 71.8346 269.762 303.864 141.08 75.5677 67.4805 60.5309 54.0723 53.8983 51.3443 48.4321
threshold=1.0000000180025095e-35 0.97450980544090282 1.0000000180025095e-35 1.0000000180025095e-35 0.0098039219155907648 0.97450980544090282 0.10000000149011613 0.69215688109397899 0.029411765746772293 0.0098039219155907648 0.0098039219155907648 0.10784313827753068 1.0000000180025095e-35 0.9784313738346101 0.017647059634327892 0.045098040252923972 0.052941177040338523 1.0000000180025095e-35 0.029411765746772293 0.9784313738346101 1.0000000180025095e-35 0.9784313738346101 0.017647059634327892 0.37450981140136724 0.78235295414924633 0.06862745434045793 0.98627451062202465 1.0000000180025095e-35 0.19803921878337863 0.1392156928777695
decision_type=2 2 2 2 2 2 2 2 2 2 2 2 2 2 2 2 2 2 2 2 2 2 2 2 2 2 2 2 2 2
left_child=1 7 3 4 6 26 11 -1 9 14 16 15 24 -6 27 -3 -7 18 25 -2 21 -21 23 29 -8 -11 -4 -9 -28 -23
right_child=19 2 5 -5 13 10 12 8 -10 17 -12 -13 -14 -15 -16 -17 -18 -19 -20 20 -22 22 -24 -25 -26 -27 28 -29 -30 -31
leaf_value=-2.2312873038793888 -2.2369651086696507 -1.7497743553905876 -2.233078688478932 -2.2089376705468919 -2.2287722743361984 -1.7657189062621659 -2.1969317247683646 -1.7732074882118067 -2.2193119572049862 -1.8443996913480916 -2.2343350300625215 -2.2058053205495645 -2.231055807098727 -1.9285664863838876 -2.1100875005624706 -2.1719491397228334 -2.2385693665109168 -2.2366980118258581 -2.2224515697073484 -2.1984853681169674 -2.2352488963466373 -1.7746070728081951 -2.1980570664370824 -2.2015581294064259 -1.7765258581419532 -2.2207246629069659 -1.8572562263422832 -2.1433976139565121 -2.2066767047506639 -2.138639026328792
leaf_count=7822 26785 4096 1729 489 255 261 24 306 960 90 118 61 133 137 70 30 20 267 93 536 3160 210 74 27 93 28 38 21 47 20
internal_value=0 0.906494 2.43726 3.40509 3.77696 0.111517 4.05909 -0.287275 0.580052 1.62348 2.54204 4.2277 1.23518 0.583594 3.30024 4.29369 3.82839 0.23086 1.21245 -0.505674 -0.227321 0.877183 2.56114 3.34422 3.1945 2.48516 -0.42309 3.85232 1.31748 3.75951
internal_count=48000 17188 7531 5318 4829 2213 4437 9657 1835 875 399 4187 250 392 397 4126 281 478 211 30812 4027 867 331 257 117 118 1814 327 85 230
shrinkage=1


Tree=2
num_leaves=31
num_cat=0
split_feature=583 344 124 346 487 528 343 320 564 489 430 442 544 348 350 473 371 519 492 539 346 129 629 690 442 464 630 371 349 568
split_gain=2966.87 1603.16 1382.78 1712.25 1587.72 722.116 631.686 660.107 489.642 1017.28 391.784 311.189 274.338 228.885 226.57 221.221 202.344 124.383 123.919 117.58 336.449 321.379 313.094 109.72 109.213 104.857 139.585 91.3674 153.828 88.5953
threshold=0.033333335071802146 1.0000000180025095e-35 0.021568628028035167 1.0000000180025095e-35 0.0058823532890528449 0.1705882400274277 0.041176471859216697 0.049019608646631248 0.0058823532890528449 0.50392159819602977 0.28039216995239263 0.037254903465509422 0.86862745881080639 0.33921569585800176 0.24901961535215381 0.33137255907058721 0.1862745136022568 0.013725490774959328 0.2019607871770859 0.013725490774959328 1.0000000180025095e-35 0.55098041892051708 0.61764708161354076 0.0058823532890528449 0.021568628028035167 0.84509804844856273 0.088235296308994307 0.049019608646631248 0.029411765746772293 0.021568628028035167
decision_type=2 2 2 2 2 2 2 2 2 2 2 2 2 2 2 2 2 2 2 2 2 2 2 2 2 2 2 2 2 2
left_child=2 11 5 4 10 8 7 -6 15 -10 12 23 -4 -11 -12 19 -7 -3 -13 -1 21 25 -23 -2 29 -21 -27 28 -14 -19
right_child=1 17 3 -5 6 16 -8 -9 9 13 14 18 27 -15 -16 -17 -18 24 -20 20 -22 22 -24 -25 -26 26 -28 -29 -30 -31
leaf_value=-2.3504809283063195 -1.8308882111982954 -2.3483766883997759 -2.343002501782717 -2.3398203547127956 -1.8315818027906716 -1.8614372701625197 -2.334188657005539 -2.2609887562402373 -2.3243038566433492 -1.8682878076529017 -1.8348082240747461 -2.3424717648576032 -1.8348347686925781 -2.283427476395278 -2.2617114632999793 -1.971259788150358 -2.2638857791111464 -2.2112616519951289 -1.8915945941102543 -2.3218612547017665 -2.3504960255892899 -1.9202688476745837 -2.2825761099727919 -2.2602903418547724 -2.3321374156742496 -2.0794620940834641 -2.3351952846958941 -2.3583477215740589 -2.3164112321343642 -1.839733135503165
leaf_count=28324 1202 613 1376 3419 1327 227 207 234 1420 432 173 105 121 89 115 89 100 68 50 1462 5520 293 242 34 106 263 216 45 53 75
internal_value=0 2.64079 -0.130057 0.828495 1.95108 -0.305276 3.55532 4.06842 -0.335018 0.818574 0.44482 4.2061 -0.0120774 3.63589 2.9752 -0.396517 3.18283 0.114857 1.05766 -0.405613 -0.153184 0.56879 2.1864 4.60093 1.51981 0.122927 1.08011 2.43842 3.21272 2.86389
internal_count=48000 2253 45747 7070 3651 38677 1768 1561 38350 1941 1883 1391 1595 521 288 36409 327 862 155 36320 7996 2476 535 1236 249 1941 479 219 174 143
shrinkage=1


Tree=3
num_leaves=31
num_cat=0
split_feature=150 349 289 488 563 351 656 350 517 318 179 292 343 682 378 315 263 289 514 438 655 486 627 292 349 487 262 261 265 542
split_gain=2318.03 2818.83 1645.17 1078 641.42 442.439 359.913 346.069 664.305 729.279 734.35 362.452 493.744 271.961 262.755 214.85 218.861 166.787 163.689 162.059 130.321 120.159 213.555 179.755 108.488 124.796 112.826 106.926 102.236 99.4895
threshold=1.0000000180025095e-35 0.35882353782653814 0.1392156928777695 1.0000000180025095e-35 1.0000000180025095e-35 0.33137255907058721 0.021568628028035167 0.18235294520854953 0.0058823532890528449 0.15882353484630587 0.0058823532890528449 0.76274511218070995 0.060784315690398223 0.0098039219155907648 0.33137255907058721 0.90392157435417186 0.7549019753932954 0.11568627506494523 0.57450982928276073 0.017647059634327892 0.59411767125129711 0.0058823532890528449 0.4921568632125855 0.10000000149011613 1.0000000180025095e-35 0.0058823532890528449 0.15098039805889132 0.0098039219155907648 0.99019607901573192 0.041176471859216697
decision_type=2 2 2 2 2 2 2 2 2 2 2 2 2 2 2 2 2 2 2 2 2 2 2 2 2 2 2 2 2 2
left_child=4 13 3 6 7 -6 19 -1 9 10 21 12 18 24 -15 16 -8 -16 28 -3 -5 22 -9 -24 -2 26 -26 -4 -12 -22
right_child=1 2 27 20 5 -7 15 8 -10 -11 11 -13 -14 14 17 -17 -18 -19 -20 -21 29 -23 23 -25 25 -27 -28 -29 -30 -31
leaf_value=-2.3372913466187901 -2.3287666772408988 -2.2514059958723922 -1.9839862355589897 -2.2986352347126795 -2.2882420760934243 -1.8724325860542628 -1.813410148255534 -2.2893746917091344 -2.330282307849675 -2.3104004710807331 -1.8293987319108047 -2.2887306024432696 -2.3030607087053947 -2.2884594129224598 -1.8911491799905957 -2.3127059725356713 -2.1833163616851179 -2.2833919354044387 -2.2089571231979637 -1.9351750633456628 -1.8597469935909889 -2.3185073893082397 -1.878558265404179 -2.2224187381714748 -2.0111901620429933 -2.3203215780584245 -2.2907270568760736 -2.2883116611897596 -2.172205516920799 -2.2155748078698156
leaf_count=22342 4292 183 67 432 264 300 1911 479 9313 2989 747 217 186 373 224 52 92 81 77 173 77 764 172 162 196 388 133 1165 51 98
internal_value=0 1.00752 2.45078 3.38199 -0.26303 2.21656 4.08447 -0.300324 -0.0271018 0.591993 1.43872 2.75846 3.32265 -0.071056 1.32134 4.46119 4.58323 2.93405 4.05943 1.90991 0.591726 0.369199 0.996036 2.43382 -0.259526 0.583959 1.64529 0.169618 4.37416 2.29713
internal_count=48000 9937 4250 3018 38063 564 2411 37499 15157 5844 2855 1278 1061 5687 678 2055 2003 305 875 356 607 1577 813 334 5009 717 329 1232 798 175
shrinkage=1


Tree=4
num_leaves=31
num_cat=0
split_feature=211 400 570 294 155 162 374 464 571 96 295 625 266 429 569 208 215 436 594 212 426 458 245 191 93 544 713 239 268 212
split_gain=2872.56 3142.53 2562.1 1709.34 735.598 464.125 396.518 399.249 402.07 366.322 209.285 193.431 169.775 169.341 298.859 553.818 358.779 169.282 162.538 150.945 150.351 202.494 150.201 134.263 132.82 119.366 104.831 104.298 103.559 95.5952
threshold=1.0000000180025095e-35 0.12745098769664767 1.0000000180025095e-35 0.033333335071802146 0.28039216995239263 0.029411765746772293 0.52352944016456615 0.21764706075191501 0.080392159521579756 0.029411765746772293 0.072549022734165206 1.0000000180025095e-35 0.68039217591285717 0.5156863033771516 1.0000000180025095e-35 1.0000000180025095e-35 0.21764706075191501 0.92352941632270824 0.025490196421742443 0.021568628028035167 0.79803922772407543 0.19803921878337863 0.013725490774959328 0.072549022734165206 0.029411765746772293 0.8019607961177827 0.072549022734165206 0.4450980424880982 0.10392156988382341 0.049019608646631248
decision_type=2 2 2 2 2 2 2 2 2 2 2 2 2 2 2 2 2 2 2 2 2 2 2 2 2 2 2 2 2 2
left_child=1 6 3 4 9 23 20 -8 11 24 -5 12 25 -2 15 16 17 -15 -7 22 -1 -22 -17 -4 27 -9 -19 -3 -25 -18
right_child=13 2 5 10 -6 18 7 8 -10 -11 -12 -13 -14 14 -16 19 29 26 -20 -21 21 -23 -24 28 -26 -27 -28 -29 -30 -31
leaf_value=-2.364010600679836 -2.3663127248465199 -1.8293022235555167 -2.3443719167668657 -1.9826952958592399 -2.3354374581150239 -1.8873762353563126 -2.3496984536874348 -1.8816841051670075 -2.30327630124654 -2.3290767672754371 -2.3345900008025637 -2.3591142851871614 -2.3532583995523706 -2.1963013191042475 -2.3677940476321955 -2.2873301798814576 -1.8504160461301513 -1.9040525638285215 -2.3279540746704783 -2.3513490996313169 -2.3514705156290918 -1.9544753232350471 -1.9624003972706672 -1.8869863991063129 -2.3358265313004005 -2.3046911868803712 -2.2947883584567639 -2.3733720936892597 -2.3602748044838435 -2.2985185990532431
leaf_count=5655 23375 2534 1942 111 193 197 904 449 466 89 668 79 56 229 5654 288 28 384 62 3350 180 121 111 66 30 41 43 20 43 632
internal_value=0 0.909027 2.21259 3.45179 4.29906 0.257243 -0.0672957 0.8484 1.81478 4.62212 0.334619 3.05877 3.56095 -0.370767 -0.123785 0.294882 1.61937 2.86226 3.25068 -0.170049 -0.374014 1.26029 1.20974 -0.120767 4.78516 4.00832 3.7451 4.84348 2.44214 0.384021
internal_count=48000 13906 5955 3645 2866 2310 7951 1995 1091 2673 779 625 546 34094 10719 5065 1316 656 259 3749 5956 301 399 2051 2584 490 427 2554 109 660
shrinkage=1


Tree=5
num_leaves=31
num_cat=0
split_feature=220 328 163 272 277 359 490 298 301 187 295 514 303 267 656 383 325 302 514 244 276 383 459 355 300 387 265 102 268 628
split_gain=3037.72 2358.71 857.054 1129.8 727.284 584.424 477.884 812.037 730.905 1463.35 672.164 352.008 336.78 334.791 656.868 329.368 236.928 184.312 177.68 154.08 145.372 184.987 131.228 127.056 121.059 108.694 94.6899 92.1709 89.1092 86.2381
threshold=0.013725490774959328 0.0058823532890528449 0.049019608646631248 0.0098039219155907648 0.060784315690398223 0.0058823532890528449 1.0000000180025095e-35 1.0000000180025095e-35 1.0000000180025095e-35 0.0058823532890528449 0.57058826088905346 0.48823529481887823 0.10000000149011613 1.0000000180025095e-35 1.0000000180025095e-35 0.0058823532890528449 0.83725491166114818 0.045098040252923972 0.74313727021217357 0.2019607871770859 0.049019608646631248 0.037254903465509422 1.0000000180025095e-35 1.0000000180025095e-35 0.017647059634327892 0.045098040252923972 0.57450982928276073 0.1392156928777695 0.045098040252923972 1.0000000180025095e-35
decision_type=2 2 2 2 2 2 2 2 2 2 2 2 2 2 2 2 2 2 2 2 2 2 2 2 2 2 2 2 2 2
left_child=2 5 4 17 6 16 7 8 9 13 11 12 24 14 22 -6 -2 18 -4 -15 -8 25 29 -3 27 -22 -16 -11 -12 -1
right_child=1 23 3 -5 15 -7 20 -9 -10 10 28 -13 -14 19 26 -17 -18 -19 -20 -21 21 -23 -24 -25 -26 -27 -28 -29 -30 -31
leaf_value=-2.355398460659309 -1.8662022737107389 -2.1578068751823154 -1.8866104795480649 -2.4238698585416416 -1.900437183361954 -2.4371700414240944 -2.4424609755876197 -2.4339170488654278 -2.4461891107564666 -1.8894522215959151 -1.9400715692211055 -2.2959635747620446 -2.451218476508092 -2.4393225153874929 -1.9452992080456315 -2.4131231705595941 -2.3304019347857134 -2.451218476508092 -2.2829929120845267 -2.0660063144947109 -1.9550076801483227 -2.451218476508092 -2.4356626986039229 -2.4424727082344968 -2.4288450428557997 -2.451218476508092 -2.2646635223779485 -2.3582826751831854 -2.4116347092771133 -2.0682731880130527
leaf_count=145 1299 105 505 751 238 129 26143 9881 2162 985 26 214 76 2082 320 111 70 46 79 69 112 167 699 967 27 35 68 26 351 112
internal_value=0 2.5996 -0.147061 1.75951 -0.206834 4.59147 -0.235057 0.0833129 0.701233 1.20059 3.06732 3.88955 4.44416 0.289919 1.25227 3.32711 5.06271 4.18668 4.55978 -0.31138 -0.442551 1.21983 0.157619 -0.183811 4.80983 3.23056 3.94939 4.947 0.170961 1.65939
internal_count=48000 2570 45430 1381 44049 1498 43700 17243 7362 5200 1705 1328 1114 3495 1344 349 1369 630 584 2151 26457 314 956 1072 1038 147 388 1011 377 257
shrinkage=1


Tree=6
num_leaves=31
num_cat=0
split_feature=101 70 243 67 104 98 213 269 594 93 182 271 267 96 213 239 212 323 294 375 515 273 267 106 91 354 268 265 622 514
split_gain=6104.51 3473.07 2775.48 1381.4 1246.03 749.922 822.775 626.176 447.217 336.474 356.393 296.346 237.658 237.626 231.412 164.243 141.969 119.877 92.4992 88.3925 83.163 72.6014 71.3557 70.9388 54.2441 49.431 45.6624 41.6201 40.3315 36.106
threshold=0.0058823532890528449 1.0000000180025095e-35 0.017647059634327892 1.0000000180025095e-35 0.076470591127872481 0.045098040252923972 0.0098039219155907648 0.4764705896377564 0.40588235855102545 1.0000000180025095e-35 0.025490196421742443 0.06862745434045793 0.4764705896377564 0.049019608646631248 0.0058823532890528449 1.0000000180025095e-35 0.025490196421742443 0.80980393290519725 0.033333335071802146 0.033333335071802146 0.025490196421742443 0.33529412746429449 0.27254903316497808 0.017647059634327892 0.41960784792900091 0.31176471710205084 0.27254903316497808 0.33137255907058721 0.017647059634327892 1.0000000180025095e-35
decision_type=2 2 2 2 2 2 2 2 2 2 2 2 2 2 2 2 2 2 2 2 2 2 2 2 2 2 2 2 2 2
left_child=1 3 7 4 5 9 12 8 17 13 27 18 20 23 22 -5 -15 21 -6 -19 25 29 -3 24 -1 -7 -25 -11 -20 -2
right_child=2 14 -4 15 11 6 -8 -9 -10 10 -12 -13 -14 16 -16 -17 -18 19 28 -21 -22 -23 -24 26 -26 -27 -28 -29 -30 -31
leaf_value=-2.3766527443168073 -1.9259974430149114 -1.8172116627629764 -2.3667634110880589 -1.8216836477497318 -2.2210852325094219 -2.2983827374248866 -2.365187718326812 -2.3446904713149612 -2.3093631747854921 -1.8450161651445605 -2.3663882461449051 -2.3640300665022225 -2.3286274583781457 -1.9067575957893381 -2.3587048681091103 -2.3813948438710661 -2.3719406873035846 -2.3444003181722253 -1.8409974921440129 -1.9071371537646133 -1.8490297708465688 -2.2580797582082628 -2.2524745270417719 -2.3313434267491049 -1.9843202680368399 -1.9328720671812425 -1.9438024541762047 -2.2112200256563979 -2.1544950862515084 -1.8228810341319162
leaf_count=40910 213 740 1008 301 46 41 630 170 126 147 189 98 86 98 50 33 60 46 338 61 374 23 22 34 20 43 35 20 25 2013
internal_value=0 -0.244025 2.95631 -0.335067 -0.372377 -0.416462 1.46071 4.23498 4.53786 -0.469549 1.83596 3.33941 3.60639 -0.489491 4.63634 4.48997 2.42572 4.77166 4.23073 2.30862 4.28854 4.88884 4.96203 -0.500726 -0.504794 2.14706 1.91217 4.37109 4.63393 4.93234
internal_count=48000 44340 3660 43528 43194 42687 1174 2652 2482 41513 356 507 544 41157 812 334 158 2356 409 107 458 2249 762 40999 40930 84 69 167 363 2226
shrinkage=1


Tree=7
num_leaves=31
num_cat=0
split_feature=740 709 743 404 405 431 712 432 458 377 745 432 377 460 706 487 714 402 405 282 403 404 428 231 486 318 517 487 428 231
split_gain=4452.88 2316.72 2112.15 1976.46 1464.02 899.921 586.255 771.764 420.749 419.797 374.692 273.304 271.626 269.562 252.287 249.888 234.906 302.78 162.629 136.211 117.011 114.504 113.737 98.1303 98.1065 91.5191 95.8741 84.6394 80.9674 77.2519
threshold=1.0000000180025095e-35 0.064705885946750655 1.0000000180025095e-35 1.0000000180025095e-35 1.0000000180025095e-35 0.0098039219155907648 1.0000000180025095e-35 1.0000000180025095e-35 0.24901961535215381 0.17843137681484225 0.22745098173618319 0.013725490774959328 0.025490196421742443 0.24901961535215381 0.0058823532890528449 0.0098039219155907648 1.0000000180025095e-35 0.017647059634327892 0.013725490774959328 0.021568628028035167 0.22549019753932956 0.22941176593303683 0.28039216995239263 0.23333333432674411 0.4450980424880982 1.0000000180025095e-35 0.80980393290519725 0.41764706373214727 0.041176471859216697 0.041176471859216697
decision_type=2 2 2 2 2 2 2 2 2 2 2 2 2 2 2 2 2 2 2 2 2 2 2 2 2 2 2 2 2 2
left_child=1 2 6 8 13 20 10 9 12 15 14 27 -3 -2 16 -8 19 18 22 -1 24 -16 -18 -6 -4 26 -9 -12 -17 -15
right_child=4 3 5 -5 23 -7 7 25 -10 -11 11 -13 -14 29 21 28 17 -19 -20 -21 -22 -23 -24 -25 -26 -27 -28 -29 -30 -31
leaf_value=-2.3095954959735669 -1.7914750120041809 -1.7955161321780153 -1.7939883300619841 -2.2843499519203556 -2.2850696946946587 -2.2569188052516922 -1.8289514562410936 -2.2472053278920283 -2.2474971790662908 -2.2877684718120217 -1.8192676210557983 -2.3007209678599589 -2.2266298201065244 -2.2949476316713797 -1.8829564900650158 -1.9336737806843489 -1.864646270694271 -2.285401911575887 -2.2509463293075744 -1.9024096974258558 -2.2313224797769022 -2.3050910897952464 -2.2515947695529359 -1.904280198133629 -2.154057292646026 -2.3105024144457862 -1.9591482188949727 -2.2925310841731386 -2.299072753767986 -1.8402675072453945
leaf_count=38083 1457 1129 691 1123 505 418 478 234 141 210 167 142 84 77 110 49 217 845 132 44 38 50 50 39 43 1214 84 23 96 27
internal_value=0 -0.150871 -0.274991 2.02477 3.28941 2.76391 -0.360629 0.758228 3.90636 2.55005 -0.427008 2.01988 4.34594 4.42811 -0.447558 3.50334 -0.459338 0.529731 2.1903 -0.491609 4.24394 2.45091 3.22856 0.0219427 4.44882 -0.216048 0.888499 3.83407 0.843716 0.83059
internal_count=48000 45895 43418 2477 2105 1190 42228 2365 1354 833 39863 332 1213 1561 39531 623 39371 1244 399 38127 772 160 267 544 734 1532 318 190 145 104
shrinkage=1


Tree=8
num_leaves=31
num_cat=0
split_feature=487 656 542 406 572 318 540 656 376 376 321 402 379 430 347 432 429 292 433 276 435 688 544 400 349 489 688 544 375 186
split_gain=1556.72 4081.61 2108.83 1257.99 1328.33 479.696 421.28 341.977 312.191 269.252 213.352 234.955 145.232 138.38 159.822 127.66 115.782 96.0155 95.9178 93.5493 92.3977 90.6778 218.102 85.0734 84.6915 84.6022 351.581 217.019 105.196 79.669
threshold=0.0058823532890528449 0.42549020051956182 0.017647059634327892 0.096078433096408858 0.95882353186607372 0.12745098769664767 0.55882355570793163 1.0000000180025095e-35 1.0000000180025095e-35 0.36666667461395269 0.1549019664525986 0.30784314870834356 0.33921569585800176 0.88039216399192821 0.021568628028035167 0.80588236451148998 0.88431373238563549 0.94705882668495189 0.62549021840095531 0.0058823532890528449 0.5000000149011613 0.20980392396450046 0.28823530673980718 0.71960785984992992 0.93529412150383007 0.55490198731422435 0.10784313827753068 0.11176470667123796 0.037254903465509422 0.0098039219155907648
decision_type=2 2 2 2 2 2 2 2 2 2 2 2 2 2 2 2 2 2 2 2 2 2 2 2 2 2 2 2 2 2
left_child=25 7 6 15 8 17 21 19 10 24 11 -5 -8 14 -11 -4 -10 -6 -16 -2 -17 -3 -23 -7 -9 -1 -27 -28 -29 -21
right_child=1 2 3 4 5 23 12 9 16 13 -12 -13 -14 -15 18 20 -18 -19 -20 29 -22 22 -24 -25 -26 26 27 28 -30 -31
leaf_value=-2.384575114220123 -2.3811037396631449 -2.3672310043968139 -2.3543406437498424 -2.3397051902677855 -2.3686189153278048 -1.9281555480007635 -2.2941502702501451 -2.346963059346026 -1.8571923467000599 -2.2908406629562483 -1.8502604542315471 -1.902002564633922 -1.8926256058712427 -2.2938178209417623 -2.2273279592652804 -2.2832689486565516 -2.0931609169538077 -2.0025468928021737 -1.9073968038528253 -2.3116276053193916 -1.8982787006276904 -2.3766857000164956 -1.9156567326567711 -2.2207245140987806 -2.0730812580966771 -2.3693474974159807 -2.3435402538379106 -2.2117190588107407 -1.8777857383292464 -2.0169421282889495
leaf_count=21144 12484 2048 702 213 621 260 75 1354 2225 134 152 105 166 253 69 78 126 44 243 245 66 170 90 73 68 4312 172 82 159 67
internal_value=0 0.466263 1.94512 2.9022 3.4875 1.11301 0.193532 -0.248924 4.32754 0.641674 2.5458 1.43032 3.20631 1.85864 2.66114 0.260036 4.68373 -0.0618534 3.60061 -0.396545 2.31397 -0.121061 1.21114 3.4592 0.0434623 -0.398889 -0.109188 2.00155 3.46806 0.898665
internal_count=48000 22131 7214 4665 3819 998 2549 14917 2821 2121 470 318 241 699 446 846 2351 665 312 12796 144 2308 260 333 1422 25869 4725 413 241 312
shrinkage=1


Tree=9
num_leaves=31
num_cat=0
split_feature=717 713 431 710 720 405 210 230 715 205 211 653 713 376 485 573 210 213 488 459 409 209 574 204 707 404 623 232 377 437
split_gain=2207.32 2085.06 1337.22 985.938 933.727 920.835 877.111 629.012 591.31 590.381 531.221 380.889 328.399 307.927 352.246 281.168 278.255 259.782 193.524 164.728 155.246 154.567 151.601 140.377 137.315 105.299 97.3922 96.3144 87.0705 82.8305
threshold=1.0000000180025095e-35 1.0000000180025095e-35 1.0000000180025095e-35 1.0000000180025095e-35 0.0058823532890528449 0.076470591127872481 0.1705882400274277 0.064705885946750655 0.096078433096408858 0.021568628028035167 0.13529412448406222 0.037254903465509422 0.017647059634327892 0.44901961088180548 0.017647059634327892 0.43333333730697637 0.40196079015731817 0.092156864702701582 0.62941178679466259 0.20980392396450046 0.1705882400274277 0.017647059634327892 0.71176472306251537 0.0058823532890528449 0.072549022734165206 0.025490196421742443 0.11568627506494523 0.096078433096408858 0.1862745136022568 0.033333335071802146
decision_type=2 2 2 2 2 2 2 2 2 2 2 2 2 2 2 2 2 2 2 2 2 2 2 2 2 2 2 2 2 2
left_child=1 3 13 4 8 19 -2 12 24 10 -4 20 29 14 -3 -7 -10 -17 26 28 -12 -6 -15 -18 -1 -26 -19 -16 -5 -8
right_child=6 2 9 5 21 15 7 -9 16 -11 11 -13 -14 22 27 17 23 18 -20 -21 -22 -23 -24 -25 25 -27 -28 -29 -30 -31
leaf_value=-2.3576454379785075 -2.3187468386266019 -2.3556695557836593 -2.2765240337790722 -2.3566802215971241 -2.237223603825611 -2.2814931650186208 -2.1265743004127029 -2.2829880281508501 -2.2999116246332427 -2.2611908378274124 -2.1179937810731517 -2.2864091578695764 -2.2329502977139679 -2.2555822040599782 -1.9549938281141783 -2.3109260041658164 -1.9148364578634707 -1.8451321874431987 -2.2416880885906525 -2.1050993154155542 -1.8608489217384019 -1.8655563264076798 -1.9358576838926571 -2.3335595299638174 -2.3082622881457655 -2.0376202593372623 -2.3408977260124315 -2.3408977260124315 -2.0856660946965722 -1.8809198410036303
leaf_count=36680 710 2052 290 1246 83 187 82 374 274 559 147 149 186 153 169 103 288 602 86 187 1226 254 181 53 216 128 23 46 70 1196
internal_value=0 -0.120053 1.32497 -0.297539 -0.392294 1.13953 2.14154 3.00376 -0.427377 2.6093 3.26464 3.82347 3.70289 0.154209 -0.158067 2.89654 1.8721 3.49717 4.00558 -0.0306336 4.21314 3.52599 2.27375 3.29777 -0.465573 1.02135 4.46317 2.72134 -0.325709 4.13012
internal_count=48000 45452 4972 40480 37976 2504 2548 1838 37639 2371 1812 1522 1464 2601 2267 1001 615 814 711 1503 1373 337 334 341 37024 344 625 215 1316 1278
shrinkage=1


Tree=10
num_leaves=31
num_cat=0
split_feature=407 386 512 489 436 351 351 627 597 597 514 657 482 439 244 461 490 401 343 347 351 381 489 329 654 211 358 267 433 513
split_gain=5034.27 3250.6 850.581 927.943 528.866 474.911 282.072 156.032 134.697 112.916 112.18 138.433 120.226 104.909 101.19 100.929 85.8373 72.0442 79.354 68.8658 61.7325 54.4863 52.4253 46.5152 45.1627 42.2682 32.1509 81.8506 37.3919 29.4962
threshold=1.0000000180025095e-35 0.045098040252923972 0.12352941557765008 1.0000000180025095e-35 0.017647059634327892 0.31176471710205084 0.59803923964500438 1.0000000180025095e-35 0.9784313738346101 1.0000000180025095e-35 0.68823531270027172 0.052941177040338523 0.63333335518836986 0.55882355570793163 0.50784316658973705 0.013725490774959328 0.23333333432674411 0.013725490774959328 0.22549019753932956 0.0098039219155907648 0.22549019753932956 0.064705885946750655 0.67254903912544262 0.13529412448406222 0.06862745434045793 0.052941177040338523 0.9784313738346101 0.9784313738346101 0.71176472306251537 0.55098041892051708
decision_type=2 2 2 2 2 2 2 2 2 2 2 2 2 2 2 2 2 2 2 2 2 2 2 2 2 2 2 2 2 2
left_child=1 2 10 5 6 7 9 24 -6 13 12 -12 29 25 -8 21 20 18 -9 -10 -13 -14 -11 -7 -4 -3 -2 -28 -29 -1
right_child=26 4 3 -5 8 23 14 17 19 22 11 16 15 -15 -16 -17 -18 -19 -20 -21 -22 -23 -24 -25 -26 -27 27 28 -30 -31
leaf_value=-0.05191653296722705 -0.053095031879725585 0.11993250689144724 0.0047744285107824691 -0.036261504099867836 -0.025257643636888122 -0.033864774348924279 -0.014690429600003614 -0.0012508992687385936 -0.03385872683423493 0.31152803553599873 -0.032816416749802423 0.29749589549553779 0.29833353008229707 0.0040717972029166013 0.25274881777706154 -0.05530893603381043 -0.047929475273652072 0.31061121089625271 0.3234772688314505 0.28325169273039991 0.015207924439937985 0.031155374297234001 0.067300845853445687 0.22339832446027055 0.33900756221254447 0.31373050775014255 -0.041134642535853715 0.30107087484641071 0.019871490389185079 0.18071351369036603
leaf_count=4941 34218 77 134 1383 420 392 225 88 49 2836 440 152 99 122 89 146 81 972 57 120 55 63 46 35 20 160 458 49 44 29
internal_value=0 1.13704 0.277714 1.19758 2.5554 2.14736 2.81317 2.69581 0.516312 2.9677 -0.279063 0.569957 -0.406777 1.82235 0.769737 0.968713 1.70938 2.93024 1.47413 2.0677 2.3671 2.08616 3.08641 -0.077222 0.564301 2.57735 -0.521268 0.0475045 1.87293 -0.50397
internal_count=48000 13231 9087 3081 4144 1698 3555 1271 589 3241 6006 728 5278 359 314 308 288 1117 145 169 207 162 2882 427 154 237 34769 551 93 4970
shrinkage=0.1


Tree=11
num_leaves=31
num_cat=0
split_feature=437 406 234 347 579 300 322 406 353 403 177 183 353 401 323 466 489 262 539 241 493 321 382 266 410 493 299 206 578 513
split_gain=3740.33 4236.19 2043.44 930.301 602.872 272.713 188.877 166.048 192.156 199.729 133.535 121.197 78.6117 72.5052 71.0911 235.969 200.836 76.8232 70.6288 69.571 60.0001 59.8385 57.3105 45.9224 45.4479 36.9387 36.6686 36.1853 26.6337 22.9209
threshold=1.0000000180025095e-35 0.91568627953529369 1.0000000180025095e-35 0.0098039219155907648 0.0098039219155907648 0.11176470667123796 0.9784313738346101 0.59019610285758983 1.0000000180025095e-35 0.10784313827753068 0.1392156928777695 1.0000000180025095e-35 1.0000000180025095e-35 0.076470591127872481 0.9784313738346101 1.0000000180025095e-35 0.9784313738346101 0.017647059634327892 0.5000000149011613 0.076470591127872481 0.017647059634327892 0.50392159819602977 0.39019608497619634 0.013725490774959328 0.67254903912544262 0.25294119119644171 0.088235296308994307 0.11960784345865251 0.27254903316497808 0.013725490774959328
decision_type=2 2 2 2 2 2 2 2 2 2 2 2 2 2 2 2 2 2 2 2 2 2 2 2 2 2 2 2 2 2
left_child=1 7 3 4 5 10 -5 -1 9 20 18 23 19 26 -2 16 -16 24 22 21 27 -4 25 -7 28 -3 -8 29 -18 -9
right_child=14 2 12 6 -6 11 13 8 -10 -11 -12 -13 -14 -15 15 -17 17 -19 -20 -21 -22 -23 -24 -25 -26 -27 -28 -29 -30 -31
leaf_value=-0.050421240071752083 -0.054217264398536941 0.28878958438772662 0.0058974601201744374 -0.038538725606701192 -0.033090271221022892 0.27400620647514284 0.29016227815948931 0.29281633455782285 -0.035099480453865621 -0.029246925270940846 -0.048193743013868057 -0.053191032798872988 -0.055001114904309749 -0.025544330965219131 -0.015369219362622553 -0.052473214935648688 0.28272709976330823 -0.015023611017045524 0.04187288308725607 -0.040784047139114682 0.0066244528693561316 0.27202215919930556 -0.00092140630809197364 -0.014567125014385188 -0.012316258051340798 0.10146976638017718 0.033008655144078435 -0.031784320153405848 0.017494315308495684 0.056448382748925621
leaf_count=7474 26785 4426 70 727 354 98 136 227 974 272 62 185 1594 61 536 3160 209 74 52 168 53 79 29 32 28 44 30 20 20 21
internal_value=0 0.783576 1.78161 2.26846 2.54977 2.6973 0.218595 -0.357056 0.292725 1.22365 2.80126 0.753325 -0.333274 1.82491 -0.49868 -0.219414 0.760488 1.93299 2.83301 0.643384 2.22862 1.62462 2.85607 2.12993 2.38224 2.87198 2.48006 2.5806 2.65088 2.76474
internal_count=48000 17188 8147 6236 5282 4928 954 9041 1567 593 4613 315 1911 227 30812 4027 867 331 4551 317 321 149 4499 130 257 4470 166 268 229 248
shrinkage=0.1


Tree=12
num_leaves=31
num_cat=0
split_feature=582 344 528 124 346 349 517 343 564 490 469 344 473 348 638 571 486 491 486 539 346 349 343 351 596 369 294 292 521 372
split_gain=2131.14 1579.88 842.738 706.456 821.943 844.863 530.536 514.772 330.212 572.196 269.007 154.509 142.36 139.143 115.82 112.937 103.879 101.192 92.1485 91.8841 247.719 246.533 370.748 134.386 84.2353 82.6259 81.7232 77.2448 70.2305 65.1359
threshold=0.0058823532890528449 0.0098039219155907648 0.0098039219155907648 0.021568628028035167 1.0000000180025095e-35 0.12745098769664767 1.0000000180025095e-35 0.041176471859216697 1.0000000180025095e-35 0.56666669249534618 1.0000000180025095e-35 0.4450980424880982 0.013725490774959328 0.33921569585800176 0.037254903465509422 0.029411765746772293 0.049019608646631248 0.76666668057441723 0.60196080803871166 0.013725490774959328 0.0098039219155907648 0.064705885946750655 0.0098039219155907648 0.25294119119644171 0.24901961535215381 0.48823529481887823 0.70784315466880809 0.24901961535215381 0.55490198731422435 0.033333335071802146
decision_type=2 2 2 2 2 2 2 2 2 2 2 2 2 2 2 2 2 2 2 2 2 2 2 2 2 2 2 2 2 2
left_child=2 6 3 8 5 7 10 26 12 -10 16 -4 14 -11 19 -16 -2 -3 -7 -1 21 22 23 -21 -19 -8 -5 -20 -12 -14
right_child=1 17 11 4 -6 18 25 -9 9 13 28 -13 29 -15 15 -17 -18 24 27 20 -22 -23 -24 -25 -26 -27 -28 -29 -30 -31
leaf_value=-0.048816031042334354 0.0737334331437519 -0.04316230526592163 0.2912042671641043 0.29134125769344948 -0.042709443214546061 -0.039977327698509896 0.3105750502520534 -0.043382486858080299 -0.033146266056929323 0.2864347000421088 -0.044153391857599526 0.0019903717349600055 0.33695670379510712 0.0051516374819452638 -0.010901009712135036 0.35614824966698255 0.30941163294209822 0.013735841283449589 0.24578669806338579 0.30174307372477499 -0.048661504800686609 -0.032155563502303759 -0.043447914357359708 0.081774064872817895 0.2424685779867784 -0.0081746203740976405 0.039295990176368582 -0.055701023464821635 0.25562030932761076 -0.0028109151797123442
leaf_count=27435 144 1800 420 1139 2923 1162 1593 341 1291 402 482 124 65 118 115 79 219 276 96 387 5200 1143 457 218 110 43 64 74 35 45
internal_value=0 1.39085 -0.177721 -0.220689 0.517572 1.30479 2.41865 2.2743 -0.348208 0.598197 0.977674 2.39295 -0.402735 2.36387 -0.412356 1.41378 2.29065 -0.182328 -0.140675 -0.42288 -0.187979 0.44859 1.21789 2.29573 0.868958 3.04164 2.80107 1.32878 -0.170877 2.04295
internal_count=48000 4702 43298 42754 5799 2876 2516 1544 36955 1811 880 544 35144 520 35034 194 363 2186 1332 34840 7405 2205 1062 605 386 1636 1203 170 517 110
shrinkage=0.1


Tree=13
num_leaves=31
num_cat=0
split_feature=350 489 290 486 315 490 378 318 516 343 180 513 318 148 125 517 514 656 293 261 264 320 344 291 431 322 150 261 146 238
split_gain=1975.26 2689.88 1334.58 673.964 384.945 326.564 209.33 244.257 375.137 285.961 192.723 189.097 152.644 161.068 127.396 126.168 188.705 133.434 114.368 107.915 96.4931 92.1934 82.1968 95.0162 74.0664 72.3655 157.984 86.8064 60.3682 60.1229
threshold=0.62549021840095531 1.0000000180025095e-35 0.1392156928777695 0.51176473498344432 0.37450981140136724 0.4450980424880982 0.74705883860588085 0.025490196421742443 1.0000000180025095e-35 0.049019608646631248 1.0000000180025095e-35 1.0000000180025095e-35 0.13529412448406222 0.28823530673980718 0.033333335071802146 1.0000000180025095e-35 0.06862745434045793 0.049019608646631248 0.37843137979507452 0.89607843756675731 0.58627453446388256 0.33137255907058721 0.31176471710205084 0.84117648005485546 0.16274510324001315 0.86078432202339183 1.0000000180025095e-35 0.50392159819602977 0.025490196421742443 0.66470590233802807
decision_type=2 2 2 2 2 2 2 2 2 2 2 2 2 2 2 2 2 2 2 2 2 2 2 2 2 2 2 2 2 2
left_child=6 2 3 4 5 10 25 8 9 11 14 21 22 -14 18 16 17 -3 -2 -15 -12 -8 23 -4 -5 -1 -27 -28 -9 -22
right_child=1 15 12 24 -6 -7 7 28 -10 -11 20 -13 13 19 -16 -17 -18 -19 -20 -21 29 -23 -24 -25 -26 26 27 -29 -30 -31
leaf_value=-0.046034752105406085 0.23273925221688471 0.0025163562749445506 0.31502208200945481 0.24728952419232919 -0.0056063832967199493 -0.0013013226669518485 0.3243275106550671 -0.039981502964101523 -0.029980300703838558 -0.044282586243975047 0.31558435265941848 0.026584698404960406 -0.016198564624390885 0.31051477071049127 0.32182239624350117 -0.04059974498263897 -0.038340979824407796 0.28438791911165495 -0.0077391514433297216 -0.047491882951236838 0.04523828183938565 0.10454687750933499 -0.037480055105883335 0.043404455858079123 -0.027282538435323151 -0.026326690753502371 0.27867832957705801 -0.046833796939201727 0.24254648542961382 0.26687031841195352
leaf_count=25806 164 146 161 51 286 220 440 3105 1198 294 2480 199 2155 115 150 7486 551 188 249 68 105 116 88 104 576 1143 130 62 36 128
internal_value=0 0.658026 1.59323 2.25151 2.5437 2.70805 -0.344233 0.0756563 0.644913 1.57571 2.84968 2.23497 0.25801 0.0315022 1.66241 -0.301037 0.510817 1.75575 0.961829 1.97157 3.05122 2.82781 1.60208 2.17709 -0.0164908 -0.431533 0.0996703 1.88909 -0.360871 1.7118
internal_count=48000 15471 7100 4409 3782 3496 32529 5388 2247 1049 3276 755 2691 2338 563 8371 885 334 413 183 2713 556 353 265 627 27141 1335 192 3141 233
shrinkage=0.1


Tree=14
num_leaves=31
num_cat=0
split_feature=211 429 126 294 95 155 401 294 155 429 569 208 215 437 212 578 295 463 239 298 467 319 97 92 542 742 456 570 210 375
split_gain=2397.5 2139.18 1936.35 938.372 590.582 217.296 196.041 202.117 209.069 165.929 277.762 453.317 250.481 151.861 129.36 106.682 104.774 104.393 94.1774 86.4564 99.6691 84.6786 66.8142 65.7687 64.539 61.5404 61.5051 80.1796 56.46 53.7323
threshold=1.0000000180025095e-35 0.14313726127147677 1.0000000180025095e-35 0.25294119119644171 0.021568628028035167 0.5000000149011613 0.017647059634327892 0.060784315690398223 1.0000000180025095e-35 0.26862746477127081 1.0000000180025095e-35 1.0000000180025095e-35 0.22156862914562228 1.0000000180025095e-35 0.021568628028035167 0.084313727915287032 0.11568627506494523 0.33137255907058721 0.35490196943283087 0.78235295414924633 0.30784314870834356 0.13529412448406222 0.021568628028035167 0.28039216995239263 0.40980392694473272 0.021568628028035167 0.58627453446388256 1.0000000180025095e-35 1.0000000180025095e-35 0.82549020648002636
decision_type=2 2 2 2 2 2 2 2 2 2 2 2 2 2 2 2 2 2 2 2 2 2 2 2 2 2 2 2 2 2
left_child=1 6 3 4 5 13 26 8 22 -2 11 12 17 -3 15 21 -5 -11 23 -14 -21 -13 -8 -15 25 -19 29 -28 -16 -1
right_child=9 2 -4 16 -6 -7 7 -9 -10 10 -12 14 19 18 28 -17 -18 24 -20 20 -22 -23 -24 -25 -26 -27 27 -29 -30 -31
leaf_value=-0.048698369566201806 -0.049151000366822385 0.12755261594460368 -0.043401178276860172 0.22768104116644783 -0.041150886938394214 -0.040038564871139104 0.26183660415265558 -0.041883377546862298 -0.036312148554310857 0.060761119350502581 -0.049484648987192438 -0.031072797337731078 -0.037671188114619378 0.31629472943715087 0.19910253425005719 -0.018115197286280301 -0.014157471969357793 0.28512955020701441 -0.042459346754246383 0.027325453355439611 0.31333225472461046 0.2752475055464661 -0.042618163169808918 -0.055961575231484567 -0.020497976051810692 -0.039670826823446359 0.19023905586197176 -0.045497216091946624 -0.037789069025110394 0.021128784140938189
leaf_count=5087 21574 235 1984 93 333 108 346 545 234 189 6563 66 477 2964 58 246 853 501 41 196 96 168 46 26 40 33 126 176 3887 709
internal_value=0 0.782265 1.63182 2.29754 2.70732 2.91903 -0.156531 0.685804 1.49163 -0.360738 -0.142382 0.219682 1.24972 2.99719 -0.190219 0.918979 0.147073 2.0756 3.10498 0.257391 1.23951 1.96753 2.35021 3.13963 2.50192 2.68636 -0.339189 0.662876 -0.342068 -0.397807
internal_count=48000 13906 6637 4653 3707 3374 7269 1171 626 34094 12520 5957 1532 3266 4425 480 946 763 3031 769 292 234 392 2990 574 534 6098 302 3945 5796
shrinkage=0.1


Tree=15
num_leaves=31
num_cat=0
split_feature=220 328 347 298 486 267 276 329 215 329 359 626 238 164 277 659 384 490 355 304 329 295 325 272 483 180 375 325 289 328
split_gain=2123.75 1151.97 665.293 668.507 905.025 722.141 523.488 400.53 302.013 420.146 264.566 208.323 169.897 135.949 124.476 123.884 117.955 108.622 100.955 86.2436 85.3593 128.066 82.3444 78.4642 76.07 64.3013 64.0861 124.66 148.962 138.79
threshold=1.0000000180025095e-35 0.0058823532890528449 0.30392158031463629 0.013725490774959328 0.013725490774959328 0.041176471859216697 0.31176471710205084 1.0000000180025095e-35 0.013725490774959328 0.0098039219155907648 0.12352941557765008 1.0000000180025095e-35 0.55098041892051708 0.18235294520854953 0.30000001192092901 0.021568628028035167 0.025490196421742443 0.060784315690398223 1.0000000180025095e-35 0.5627451241016389 0.0058823532890528449 0.033333335071802146 0.7705882489681245 0.088235296308994307 0.86078432202339183 0.11568627506494523 0.33137255907058721 0.0098039219155907648 0.22156862914562228 0.017647059634327892
decision_type=2 2 2 2 2 2 2 2 2 2 2 2 2 2 2 2 2 2 2 2 2 2 2 2 2 2 2 2 2 2
left_child=2 10 13 4 5 7 19 11 -7 12 22 17 -10 14 26 -6 -8 -4 -3 -5 21 25 -2 -15 -14 -17 -1 28 -28 -30
right_child=1 18 3 6 15 8 16 -9 9 -11 -12 -13 24 23 -16 20 -18 -19 -20 -21 -22 -23 -24 -25 -26 -27 27 -29 29 -31
leaf_value=-0.045985130479320735 0.32108911907630311 0.18473901932249681 0.23032149303654734 -0.036628562955555173 -0.041772288442651385 -0.029323406123297979 0.32405560051480437 -0.025535559153210426 0.033191249529034961 -0.0492991851801741 -0.054730651139633449 0.33168483056877029 0.33500194411099993 0.32955290394079323 0.223852762543685 0.055306414220394673 -0.021914676301482125 -0.01210599936435299 -0.045905336262548183 0.25262887688237756 -0.050490140683938867 0.00049378219708506161 0.082701855508299352 -0.043432883251961762 -0.011734930807839937 0.29479933265276398 -0.01611536055852247 -0.040851978917581896 0.26984451331436626 -0.049574326460725904
leaf_count=24005 1317 107 255 9440 3041 1338 221 298 159 469 133 1023 425 65 80 86 77 177 1001 59 296 306 82 55 38 182 583 2330 233 119
internal_value=0 1.89381 -0.141699 0.221412 0.718162 1.43417 -0.227839 2.44927 0.531107 1.40992 2.90089 2.84857 2.50415 -0.390226 -0.403455 -0.170357 2.57928 1.47198 -0.182641 -0.346394 0.618554 1.11995 3.10773 1.95782 3.11466 2.21618 -0.414281 -0.0898304 0.642942 1.78794
internal_count=48000 2640 45360 17890 8093 4182 9797 1753 2429 1091 1532 1455 622 27470 27350 3911 298 432 1108 9499 870 574 1399 120 463 268 27270 3265 935 352
shrinkage=0.1


Tree=16
num_leaves=31
num_cat=0
split_feature=101 97 243 213 104 94 99 269 239 245 182 92 299 323 430 106 241 216 239 295 272 514 298 131 329 458 416 354 296 402
split_gain=4204.91 2458.49 1364.18 999.1 903.423 764.861 440.802 267.891 231.717 195.533 187.19 147.621 142.259 59.9682 63.7827 59.2768 54.775 49.2139 48.3076 36.2489 33.4338 30.271 85.9434 89.0586 138.895 171.262 42.3814 64.7016 33.1686 27.2131
threshold=0.0058823532890528449 1.0000000180025095e-35 0.017647059634327892 0.0058823532890528449 0.076470591127872481 0.0058823532890528449 0.33921569585800176 0.49607843160629278 0.31176471710205084 0.1392156928777695 0.025490196421742443 0.045098040252923972 0.013725490774959328 0.69215688109397899 0.46470588445663458 0.017647059634327892 0.049019608646631248 0.060784315690398223 0.025490196421742443 0.26470589637756353 0.0098039219155907648 0.52352944016456615 0.013725490774959328 0.041176471859216697 1.0000000180025095e-35 0.36274510622024542 0.36666667461395269 0.10392156988382341 0.22549019753932956 0.9941176474094392
decision_type=2 2 2 2 2 2 2 2 2 2 2 2 2 2 2 2 2 2 2 2 2 2 2 2 2 2 2 2 2 2
left_child=1 4 7 8 5 6 11 9 17 13 -7 15 18 -2 -15 21 -8 -3 -6 -10 -17 -1 23 26 25 -25 29 -28 -27 -23
right_child=2 3 -4 -5 12 10 16 -9 19 -11 -12 -13 -14 14 -16 20 -18 -19 -20 -21 -22 22 -24 24 -26 28 27 -29 -30 -31
leaf_value=-0.053613469157740325 0.30778906270653544 0.30924263992482171 -0.039868775797395478 -0.042947347008288984 0.037119134336965245 0.30366620056302795 0.29695588301373826 -0.020646643234766511 0.21750750327920523 -0.033423236490248025 -0.044792517473000476 0.28028515730150366 -0.022525498948891033 0.012408698785937972 0.28913401489218155 0.27669543568360477 -0.037383313177774949 -8.5468130506298262e-05 0.30157056956981132 -0.042831258399389796 -0.038072997908747103 -0.040415584635390307 -0.051081731316705507 -0.016278817028898655 -0.049290936149244659 0.44444362081806948 0.0094960615573734877 0.44081682093753455 0.15954806117794385 0.085632261837299148
leaf_count=32182 2230 1236 1008 775 37 306 173 167 33 101 113 56 102 74 80 40 32 24 366 133 29 1422 6608 108 208 118 73 28 30 108
internal_value=0 -0.235066 2.12734 1.93337 -0.384087 -0.430439 -0.469725 2.77313 2.79767 2.90813 2.35071 -0.490691 2.35374 3.00278 1.71304 -0.497229 2.57609 3.04309 2.81915 0.161811 1.54363 -0.501474 -0.373563 0.0565817 0.998897 2.1916 -0.21181 1.30737 3.86846 -0.313599
internal_count=48000 44340 3660 2201 42139 41634 41215 2652 1426 2485 419 41010 505 2384 154 40954 205 1260 403 166 69 40885 8703 2095 464 256 1631 101 148 1530
shrinkage=0.1


Tree=17
num_leaves=31
num_cat=0
split_feature=711 404 742 708 745 405 459 432 714 404 402 377 377 399 311 319 345 458 488 705 231 429 350 404 318 600 295 716 229 457
split_gain=3065.17 2097.27 1979.88 1025.1 595.478 518.813 480.006 311.801 311.799 302.945 277.248 142.074 106.685 137.921 105.64 96.0509 92.4681 89.2168 79.6092 75.5204 74.0703 56.1463 58.3056 53.4426 52.6802 92.9017 49.2173 46.5072 90.7874 46.4685
threshold=1.0000000180025095e-35 1.0000000180025095e-35 0.0058823532890528449 0.045098040252923972 1.0000000180025095e-35 0.045098040252923972 0.22549019753932956 0.0098039219155907648 1.0000000180025095e-35 0.013725490774959328 0.013725490774959328 0.052941177040338523 0.049019608646631248 1.0000000180025095e-35 0.084313727915287032 0.096078433096408858 0.029411765746772293 0.46470588445663458 0.025490196421742443 0.0098039219155907648 0.0058823532890528449 0.55490198731422435 0.71176472306251537 0.0098039219155907648 1.0000000180025095e-35 0.66862747073173534 0.77450981736183178 0.013725490774959328 0.1392156928777695 0.092156864702701582
decision_type=2 2 2 2 2 2 2 2 2 2 2 2 2 2 2 2 2 2 2 2 2 2 2 2 2 2 2 2 2 2
left_child=2 6 3 4 8 17 11 18 14 21 12 -2 13 -10 19 -16 -8 -4 23 27 -7 22 -5 -6 25 -3 -13 -1 -29 -15
right_child=1 24 5 9 7 20 16 -9 10 -11 -12 26 -14 29 15 -17 -18 -19 -20 -21 -22 -23 -24 -25 -26 -27 -28 28 -30 -31
leaf_value=-0.05026082722370212 0.29810539998388474 -0.025823030462334137 0.2997379415725292 0.30756824277674338 0.31305552654906021 -0.04576908314103998 0.21596312873299062 -0.040067520710566323 0.28457437646239803 -0.0073890838627894764 -0.019895334514917807 -0.033854394233339156 0.0019574729064654717 0.21965411295505011 -0.036898932717694198 0.31389482187453099 -0.050197167632934359 0.083339646756094732 -0.0052671268303831516 0.22065294355026188 0.23350899210007503 0.018519246644509588 -0.02145852257188946 -0.03599202747543797 -0.042365172228429678 0.19388555704642402 0.24022643456270623 -0.013168287470218891 0.31795664024992654 -0.046796607873238659
leaf_count=37180 2243 321 897 458 314 376 81 283 289 285 1270 89 168 39 86 74 295 102 52 44 50 37 27 21 1803 142 49 764 45 116
internal_value=0 1.55018 -0.221212 -0.328485 -0.387739 2.13694 2.60123 1.59177 -0.428953 1.98248 0.467058 2.87879 1.59714 2.09223 -0.477621 1.35735 0.14084 2.82496 2.64298 -0.48611 -0.0773632 2.76966 2.93018 2.94602 -0.237576 0.447514 0.679345 -0.490265 0.068738 0.331691
internal_count=48000 5023 42977 41552 40745 1425 2757 670 40075 807 1882 2381 612 444 38193 160 376 999 387 38033 426 522 485 335 2266 463 138 37989 809 155
shrinkage=0.1


Tree=18
num_leaves=31
num_cat=0
split_feature=487 657 542 406 319 373 293 540 428 276 543 660 572 594 405 489 688 294 405 294 602 485 378 656 239 485 432 599 569 354
split_gain=1356.08 2997.56 1484.6 894.718 438.554 311.751 349.224 290.694 207.81 192.632 180.44 276.857 127.171 95.6096 89.9561 82.4612 277.22 144.903 70.1891 70.095 68.5478 67.706 265.014 123.069 92.6228 58.8003 69.2924 52.9447 52.1843 53.4783
threshold=0.0058823532890528449 0.021568628028035167 1.0000000180025095e-35 1.0000000180025095e-35 1.0000000180025095e-35 0.060784315690398223 0.67254903912544262 0.26862746477127081 0.13529412448406222 0.0058823532890528449 0.017647059634327892 0.052941177040338523 0.98235294222831737 0.4607843160629273 0.55490198731422435 0.55490198731422435 0.0098039219155907648 0.63333335518836986 0.013725490774959328 0.86078432202339183 0.68039217591285717 0.30784314870834356 0.87254902720451366 0.33137255907058721 0.34705883264541632 0.021568628028035167 0.060784315690398223 0.69215688109397899 0.1549019664525986 0.35882353782653814
decision_type=2 2 2 2 2 2 2 2 2 2 2 2 2 2 2 2 2 2 2 2 2 2 2 2 2 2 2 2 2 2
left_child=15 9 7 25 5 6 27 10 19 -2 -3 -12 -8 -11 -9 21 -17 18 -18 -6 -13 -1 -23 -24 -25 26 -4 -5 -10 -30
right_child=1 2 3 4 8 -7 12 14 28 13 11 20 -14 -15 -16 16 17 -19 -20 -21 -22 22 23 24 -26 -27 -28 -29 29 -31
leaf_value=-0.051133991791286242 -0.040603224346469881 -0.045725009436828355 -0.026462481722951799 0.10603247471818292 0.31498180074982307 0.30990391220686409 0.33235030812375393 0.012722125631768777 -0.0041243691415272276 0.043702995114153723 -0.022480446076365679 0.35397089061163023 0.020797292803006646 0.28131780560894176 0.27531643406486223 -0.032148801863699852 0.020988738028414892 -0.0048544888094837783 0.29344020454775577 0.19791516265459294 0.12669195367797076 -0.043416940228473297 0.020305090406194701 0.38724536555992928 0.084909504679016923 -0.032499497733729697 0.25849736610837593 -0.037043998091109864 0.02223793074119091 0.26104461177276711
leaf_count=18211 12953 2363 100 164 2239 341 228 98 120 289 540 148 98 119 221 4228 62 213 222 243 116 2464 216 155 98 809 83 656 69 134
internal_value=0 0.418114 1.38696 2.05125 2.41898 1.42359 0.815291 0.131979 2.86394 -0.350429 -0.110416 0.838808 2.60137 1.1928 2.0777 -0.389007 -0.101588 1.4538 2.4145 3.04336 2.61354 -0.455564 -0.108752 1.57065 2.71393 -0.0382563 1.13853 -0.0559973 1.17133 1.82753
internal_count=48000 22131 8770 5284 4292 1487 1146 3486 2805 13361 3167 804 326 408 319 25869 4725 497 284 2482 264 21144 2933 469 253 992 183 820 323 203
shrinkage=0.1


Tree=19
num_leaves=31
num_cat=0
split_feature=156 211 345 597 370 381 430 319 599 469 266 708 549 541 191 720 205 154 371 211 717 378 484 658 456 410 207 378 484 408
split_gain=1709.27 2096.69 1501.96 1433.48 677.865 501.554 349.089 238.834 225.281 201.986 174.607 156.293 143.945 132.348 121.421 121.337 112.794 75.3483 73.305 73.0987 81.0011 71.8053 68.979 57.8453 57.5202 52.2635 51.4829 48.052 153.412 47.7988
threshold=1.0000000180025095e-35 0.26078432798385626 1.0000000180025095e-35 0.041176471859216697 0.0098039219155907648 0.06862745434045793 0.0098039219155907648 0.57058826088905346 0.017647059634327892 0.15098039805889132 0.84509804844856273 0.06862745434045793 0.013725490774959328 0.033333335071802146 0.033333335071802146 0.11568627506494523 0.1549019664525986 0.24901961535215381 0.35098040103912359 0.025490196421742443 0.16666667163372043 0.084313727915287032 0.35490196943283087 0.19019608199596408 0.013725490774959328 0.40980392694473272 0.21764706075191501 0.021568628028035167 0.017647059634327892 0.076470591127872481
decision_type=2 2 2 2 2 2 2 2 2 2 2 2 2 2 2 2 2 2 2 2 2 2 2 2 2 2 2 2 2 2
left_child=1 15 4 5 7 25 10 18 24 14 16 -5 13 29 17 19 27 -8 -3 -1 -21 -13 -12 -23 -6 -4 -17 28 -7 -9
right_child=-2 2 3 11 8 6 9 12 -10 -11 22 21 -14 -15 -16 26 -18 -19 -20 20 -22 23 -24 -25 -26 -27 -28 -29 -30 -31
leaf_value=-0.044653018268563938 -0.04759953641306508 -0.047181266884832339 0.0087750619557389244 -0.043796813433975484 0.15705184694916458 0.011493761550552961 0.30460605909465188 -0.055892411043882366 -0.008658543312962225 0.045587501357874455 -0.0082707543134576331 0.022102766645378205 -0.028210235539518902 -0.042466582738331878 0.006343279530908472 0.010938161553802521 0.038467639553891493 0.056705519497444096 0.25967621536737301 -0.0070537249011547376 0.17953819757986905 0.30725009129912795 0.28482494034690709 -0.039164886482412849 0.3275351695474471 0.15789988789568155 0.25589028877685999 0.29479433947854961 0.32220417816790542 0.2539744954434911
leaf_count=9895 23563 4204 560 1605 125 164 2754 29 195 177 388 160 347 131 75 81 174 71 34 1596 121 109 40 32 348 151 86 330 142 313
internal_value=0 0.420041 1.03204 1.68602 0.117006 2.22809 2.4747 -0.201653 2.15042 2.82474 1.46803 -0.120629 0.909075 1.66691 2.94074 -0.332964 2.02767 3.00096 -0.439403 -0.365215 0.0831841 1.33729 0.247373 2.40253 2.86096 0.421667 1.51143 2.41939 1.77696 2.3162
internal_count=48000 24437 12658 6932 5726 5026 4315 5058 668 3077 1238 1906 820 473 2900 11779 810 2825 4238 11612 1717 301 428 141 473 711 167 636 306 342
shrinkage=0.1


Tree=20
num_leaves=31
num_cat=0
split_feature=435 455 626 457 380 453 359 379 490 489 330 240 458 541 327 410 413 629 358 509 350 294 378 344 657 355 237 324 271 350
split_gain=4249.28 2477.22 602.361 429.835 295.41 286.008 218.004 206.02 177.949 132.807 68.7201 64.7368 64.7222 60.4956 60.4076 53.8131 44.5759 44.5691 32.4599 61.7041 31.935 31.2985 26.8395 26.5797 23.5791 29.5536 22.6898 22.0904 44.8694 21.5534
threshold=1.0000000180025095e-35 0.021568628028035167 1.0000000180025095e-35 0.70784315466880809 0.28039216995239263 0.70000001788139354 0.0098039219155907648 0.088235296308994307 0.052941177040338523 0.66470590233802807 0.23333333432674411 0.041176471859216697 0.99019607901573192 0.092156864702701582 0.36274510622024542 0.029411765746772293 0.34705883264541632 0.025490196421742443 0.95882353186607372 0.95490196347236644 0.11176470667123796 0.15882353484630587 0.33921569585800176 0.65294119715690624 0.025490196421742443 0.26078432798385626 0.31176471710205084 0.7549019753932954 0.041176471859216697 0.40980392694473272
decision_type=2 2 2 2 2 2 2 2 2 2 2 2 2 2 2 2 2 2 2 2 2 2 2 2 2 2 2 2 2 2
left_child=1 3 6 5 9 12 16 8 13 27 20 26 -1 -5 -14 -7 -3 -18 -2 -20 -6 -21 -16 -11 25 -15 -8 -4 -29 -19
right_child=18 2 4 7 10 15 11 -9 -10 23 -12 -13 14 24 22 -17 17 29 19 21 -22 -23 -24 -25 -26 -27 -28 28 -30 -31
leaf_value=-0.047356625649762063 -0.052181505620416346 -0.042646767445459352 0.23678849800559498 0.013023584041217505 0.16393687592043529 0.22719919401394015 -0.001425736998402485 -0.038631024585531075 -0.033672433458698074 -0.050100582944429421 0.20328106087211975 0.22659724208399343 -0.024350684001073875 0.010352140565204972 0.24033410365576946 -0.055516184778387795 -0.0027816705584530073 0.22892239339627862 -0.031842156411309747 -0.021979782855015149 -0.049451386897283969 0.2528102042075927 -0.032661965724317225 0.18814749846458889 0.2457806373856013 0.23441654724291494 0.22404664235506525 0.006000323147438205 0.21915987957031977 -0.030174944400244177
leaf_count=5852 34295 764 3310 77 36 159 111 411 222 121 71 234 195 52 69 45 192 65 536 37 324 50 27 30 395 55 21 59 162 23
internal_value=0 0.988269 1.85826 -0.00656605 2.15743 -0.289744 0.53965 1.13018 1.64033 2.28417 0.28455 1.75443 -0.412689 2.09202 0.638038 1.88643 -0.0958897 0.631477 -0.511036 0.0298858 -0.213772 1.65859 1.87465 0.0558311 2.28213 1.37448 0.449594 2.3353 1.74042 1.79848
internal_count=48000 13082 5523 7559 4113 6347 1410 1212 801 3682 431 366 6143 579 291 204 1044 280 34918 623 360 87 96 151 502 107 132 3531 221 88
shrinkage=0.1


Tree=21
num_leaves=31
num_cat=0
split_feature=437 406 234 402 149 300 406 353 403 210 538 323 466 462 378 353 291 270 323 241 374 459 519 520 204 206 548 323 185 487
split_gain=3245.91 3158.08 1397.72 608.002 332.836 252.84 131.817 159.227 157.563 100.973 81.5377 69.9886 209.567 153.297 84.7904 69.7664 59.3858 60.6721 54.8243 53.8239 48.8561 41.3066 40.7202 39.9235 38.7999 33.2453 32.1594 27.1264 89.686 25.05
threshold=1.0000000180025095e-35 0.90000000596046459 1.0000000180025095e-35 1.0000000180025095e-35 0.037254903465509422 0.10000000149011613 0.4921568632125855 1.0000000180025095e-35 0.10392156988382341 1.0000000180025095e-35 0.11568627506494523 0.9784313738346101 1.0000000180025095e-35 0.9784313738346101 0.97058823704719555 1.0000000180025095e-35 0.29607844352722174 0.041176471859216697 0.94705882668495189 0.076470591127872481 0.45686274766922003 0.0098039219155907648 0.15882353484630587 0.48039215803146368 0.025490196421742443 0.11176470667123796 0.029411765746772293 0.15098039805889132 0.037254903465509422 0.97058823704719555
decision_type=2 2 2 2 2 2 2 2 2 2 2 2 2 2 2 2 2 2 2 2 2 2 2 2 2 2 2 2 2 2
left_child=1 6 3 4 5 10 -1 8 23 22 16 -2 13 -13 -15 19 27 -18 -5 21 24 -4 -7 25 -16 -8 29 28 -3 -20
right_child=11 2 15 18 -6 9 7 -9 -10 -11 -12 12 -14 14 20 -17 17 -19 26 -21 -22 -23 -24 -25 -26 -27 -28 -29 -30 -31
leaf_value=-0.051486686432982681 -0.053727389150836663 0.21604185327870851 0.19345759005448748 -0.051329645531686119 -0.043722546148944247 0.21250500589328772 0.22597255599163338 -0.039649071275318803 -0.033046916170906097 -0.053829578155471361 -0.022579331506606168 -0.037716376666402263 -0.051943060782328167 -0.031021441052857968 0.22474564802342789 -0.054591602419519769 0.20797518796209413 -0.040329629395703059 0.03378886686212397 -0.040492254840882112 -0.034866864826100546 -0.038495209873859418 -0.033601244153430743 0.032740001332399828 -0.056131631519588589 -0.056103884740081926 -0.02136958298967525 0.22112251347396425 -0.059003696814761288 0.22328155124139665
leaf_count=7159 26785 167 103 559 293 100 234 1096 310 270 71 424 3160 111 259 1639 74 91 53 174 46 48 42 70 27 23 96 4398 63 55
internal_value=0 0.695572 1.45346 1.79556 1.96164 2.04014 -0.36627 0.176489 0.967555 0.407336 2.13063 -0.492278 -0.2125 0.673944 1.41014 -0.330832 2.15197 0.943269 -0.109645 0.549665 1.83318 1.32929 1.59565 1.79017 2.07264 2.09235 0.771895 2.18254 1.57918 1.44619
internal_count=48000 17188 8296 6332 5569 5276 8892 1733 637 412 4864 30812 4027 867 443 1964 4793 165 763 325 332 151 142 327 286 257 204 4628 230 108
shrinkage=0.1


Tree=22
num_leaves=31
num_cat=0
split_feature=124 346 487 555 442 538 346 516 430 344 349 544 473 320 663 343 659 638 524 611 457 349 470 490 568 347 350 372 156 571
split_gain=1743.18 1240 678.029 614.134 372.174 357.267 636.111 409.174 255.485 235.981 234.458 200.334 180.053 153.235 131.004 115.205 93.7984 75.7759 120.473 74.0239 63.5706 70.6168 52.4133 51.6566 49.8522 107.702 129.435 156.889 135.383 71.9339
threshold=0.021568628028035167 1.0000000180025095e-35 0.0058823532890528449 0.037254903465509422 0.017647059634327892 0.0098039219155907648 1.0000000180025095e-35 0.06862745434045793 0.28039216995239263 0.39411765336990362 0.12745098769664767 0.80588236451148998 0.013725490774959328 0.57058826088905346 0.076470591127872481 0.30392158031463629 0.056862745434045799 0.013725490774959328 0.017647059634327892 0.11960784345865251 0.11176470667123796 0.092156864702701582 0.0058823532890528449 0.75098040699958812 0.029411765746772293 0.033333335071802146 0.32745099067687994 0.029411765746772293 0.17843137681484225 0.049019608646631248
decision_type=2 2 2 2 2 2 2 2 2 2 2 2 2 2 2 2 2 2 2 2 2 2 2 2 2 2 2 2 2 2
left_child=3 2 8 5 14 12 7 20 11 13 15 -2 17 -4 -5 -9 -10 24 -19 -3 -7 -22 -12 -6 -1 26 27 28 -26 -30
right_child=1 19 9 4 23 6 -8 10 16 -11 22 -13 -14 -15 -16 -17 -18 18 -20 -21 21 -23 -24 -25 25 -27 -28 -29 29 -31
leaf_value=-0.050029256279687066 -0.038763561243335333 -0.033057191258720538 0.23007557226600178 0.21619964925133572 -0.050035222146015482 -0.04396015832049701 -0.041272277880815493 0.24440482840784006 0.23535717046964241 -0.044173095996881073 -0.019438960499257887 0.15096896449028657 0.1879080049765337 0.0098648760657414417 -0.028271013920449947 -0.026844188497486161 -0.010306704960217289 0.19447910677350394 -0.041789067277653587 0.15000843716802259 0.17421673083541578 -0.023631654505709598 0.22635353315072484 0.11348739205386281 0.032732839375233087 -0.049123917809065304 -0.038277541330564907 -0.039486155833717229 0.062008601320132341 0.32642308497923422
leaf_count=24661 1446 3571 2101 644 681 789 4542 759 267 209 319 280 128 174 131 89 97 152 327 99 156 209 42 103 253 4007 1109 387 71 197
internal_value=0 0.882982 1.49349 -0.23093 1.05418 -0.301586 0.17422 1.03003 0.476046 2.06962 1.7707 0.0398037 -0.418707 2.19686 1.87925 2.24919 1.87651 -0.433938 0.46419 -0.262449 -0.0422665 0.717876 0.16264 -0.225541 -0.450447 -0.25116 0.195621 0.833245 1.59851 2.63403
internal_count=48000 8244 4574 39756 1559 38197 6905 2363 2090 2484 1209 1726 31292 2275 775 848 364 31164 479 3670 1154 365 361 784 30685 6024 2017 908 521 268
shrinkage=0.1


Tree=23
num_leaves=31
num_cat=0
split_feature=350 489 290 486 316 179 378 318 543 343 156 175 318 517 514 265 656 288 320 344 513 431 490 342 234 294 125 176 321 288
split_gain=1710.96 2082.58 960.838 457.903 278.546 212.106 149.915 180.256 205.225 171.59 132.895 131.419 130.396 124.132 161.93 107.97 94.6823 83.0493 76.8159 76.5176 65.3509 59.2872 58.2667 52.8408 46.6492 45.1387 78.7876 44.293 142.195 78.823
threshold=0.46862745285034185 1.0000000180025095e-35 0.1392156928777695 0.50392159819602977 0.51176473498344432 0.013725490774959328 0.74705883860588085 0.021568628028035167 0.0098039219155907648 0.049019608646631248 0.021568628028035167 0.10784313827753068 0.17450980842113498 0.0098039219155907648 0.11960784345865251 0.58627453446388256 1.0000000180025095e-35 0.79411765933036815 0.33529412746429449 0.31176471710205084 0.18235294520854953 0.16274510324001315 0.52352944016456615 0.88431373238563549 0.10000000149011613 0.90784314274787914 0.39019608497619634 0.0098039219155907648 0.51176473498344432 0.013725490774959328
decision_type=2 2 2 2 2 2 2 2 2 2 2 2 2 2 2 2 2 2 2 2 2 2 2 2 2 2 2 2 2 2
left_child=6 2 3 4 5 10 27 8 9 18 24 12 19 14 16 -12 -3 -13 -8 20 -4 -5 23 -7 -2 -14 -27 -1 -29 -30
right_child=1 13 11 21 -6 22 7 -9 -10 -11 15 17 25 -15 -16 -17 -18 -19 -20 -21 -22 -23 -24 -25 -26 26 -28 28 29 -31
leaf_value=-0.047394871957221002 -0.0020910453643769519 -0.00068936160473965667 0.22731419236275874 0.18795078518595984 -0.025563962954526606 0.23314622570671337 0.232081036142363 -0.037187418439343499 -0.024422101961707923 -0.043027981881113619 0.23159523342425539 0.23782199103361204 -0.035722512755341884 -0.040325121329467473 -0.039183184351302636 0.026096314209310661 0.20907740502217395 -0.017887882380961128 0.044262435837163432 -0.03927779432327963 0.00078207723112276584 -0.025928644606732956 0.018954517501233191 -0.031464151025575884 0.18802715428223737 -0.00077165242619661332 0.23857898361500471 -0.032085480422286462 0.25052383392439093 -0.024857844706044054
leaf_count=23078 415 176 184 58 286 2668 385 2547 843 236 375 162 1961 8290 656 163 230 96 135 134 82 664 64 36 67 420 76 3297 127 89
internal_value=0 0.543401 1.25701 1.73839 1.93927 2.04858 -0.363989 0.0490905 0.619433 1.36476 1.20502 0.195143 0.035414 -0.295532 0.425176 1.82294 1.37848 1.59838 1.92334 1.12821 1.68451 -0.0239434 2.27592 2.30798 0.289036 -0.191258 0.432565 -0.434308 -0.180951 1.52245
internal_count=48000 17263 7911 4796 4074 3788 30737 4146 1599 756 1020 3115 2857 9352 1062 538 406 258 520 400 266 722 2768 2704 482 2457 496 26591 3513 216
shrinkage=0.1


Tree=24
num_leaves=31
num_cat=0
split_feature=211 429 126 267 95 322 401 429 569 208 628 294 264 155 213 319 155 213 128 240 210 92 437 463 456 570 542 375 155 352
split_gain=2046.59 1571.55 1290.32 572.221 356.531 196.673 169.999 162.566 259.356 393.202 202.121 155.361 150.218 141.141 111.476 108.849 103.044 77.1333 99.8762 71.2822 63.2137 59.7627 56.8376 54.9181 54.9017 59.0241 51.988 51.3731 62.1662 71.5875
threshold=1.0000000180025095e-35 0.14313726127147677 1.0000000180025095e-35 0.42549020051956182 0.021568628028035167 0.19019608199596408 0.017647059634327892 0.11568627506494523 1.0000000180025095e-35 0.0098039219155907648 1.0000000180025095e-35 0.076470591127872481 0.74313727021217357 1.0000000180025095e-35 0.14705882966518405 0.82156863808631908 0.34705883264541632 0.32352942228317266 1.0000000180025095e-35 0.15882353484630587 1.0000000180025095e-35 1.0000000180025095e-35 0.80588236451148998 0.42549020051956182 0.58627453446388256 1.0000000180025095e-35 0.22549019753932956 0.82549020648002636 0.049019608646631248 0.33137255907058721
decision_type=2 2 2 2 2 2 2 2 2 2 2 2 2 2 2 2 2 2 2 2 2 2 2 2 2 2 2 2 2 2
left_child=1 6 3 4 5 16 24 -2 9 10 12 13 26 -8 23 -11 21 18 19 -17 -19 -3 -7 -12 27 -26 -9 -1 29 -29
right_child=7 2 -4 -5 -6 22 11 8 -10 15 14 -13 -14 -15 -16 17 -18 20 -20 -21 -22 -23 -24 -25 25 -27 -28 28 -30 -31
leaf_value=-0.048046498042690212 -0.04979657471550087 0.23508646524128218 -0.042466657213866832 -0.011103060917690434 -0.04073386938940262 -0.0063650899831106198 0.18343692158921945 0.2536152531410511 -0.048942630497188451 -0.043433671378871254 -0.056335152312962114 -0.042033156233380851 0.037590194037415009 -0.035569814315881708 -0.0096037961276018314 0.26416997642025958 -0.014889824802450827 0.36862590796340688 -0.032461508069129195 0.049207374679994996 -0.024050183151554504 -0.032228695077190131 0.17973823704657321 0.24838584338827877 0.15237538814704857 -0.044658747461364542 0.025575607883129847 -0.013620563023368113 -0.046392066921524859 0.20329834614125253
leaf_count=5087 20101 3047 1984 774 349 239 395 460 7315 3601 38 540 270 236 802 170 94 20 200 147 807 46 104 109 126 176 54 172 387 150
internal_value=0 0.691193 1.34926 1.8057 2.04123 2.17023 -0.149291 -0.351366 -0.152706 0.172272 1.02952 0.607737 1.76526 1.2383 0.288309 -0.208028 2.28558 0.36767 1.03993 1.77925 -0.119023 2.32792 0.580171 1.85924 -0.329265 0.590417 2.34654 -0.388483 0.201221 0.932567
internal_count=48000 13906 6637 4653 3879 3530 7269 34094 13993 6678 1733 1171 784 631 949 4945 3187 1344 517 317 827 3093 343 147 6098 302 514 5796 709 322
shrinkage=0.1


Tree=25
num_leaves=31
num_cat=0
split_feature=220 355 347 298 516 295 329 276 186 386 485 384 164 276 265 244 325 267 206 190 329 328 272 296 353 330 375 298 295 301
split_gain=1634.73 725.695 607.482 580.344 678.143 459.312 544.608 429.653 292.715 196.532 129.226 111.187 110.679 97.3849 88.6806 108.045 65.2672 62.8848 62.7887 62.0766 76.701 61.8844 61.5159 58.7515 54.3426 54.102 52.4444 108.518 116.797 125.829
threshold=1.0000000180025095e-35 0.045098040252923972 0.24509803950786593 0.013725490774959328 1.0000000180025095e-35 0.50392159819602977 1.0000000180025095e-35 1.0000000180025095e-35 0.0058823532890528449 0.11960784345865251 0.50784316658973705 0.0098039219155907648 0.013725490774959328 0.54313728213310253 0.0098039219155907648 0.51960787177085888 0.86862745881080639 0.017647059634327892 0.0058823532890528449 0.38627451658248907 0.0058823532890528449 0.0098039219155907648 0.045098040252923972 0.53529414534568798 0.74705883860588085 0.096078433096408858 0.25294119119644171 1.0000000180025095e-35 0.0058823532890528449 0.013725490774959328
decision_type=2 2 2 2 2 2 2 2 2 2 2 2 2 2 2 2 2 2 2 2 2 2 2 2 2 2 2 2 2 2
left_child=2 9 12 4 5 6 8 -5 14 16 -10 24 13 26 23 -16 -2 -7 -12 -6 -21 -3 -14 -4 -9 -15 -1 28 29 -28
right_child=1 21 3 7 19 17 -8 11 10 -11 18 -13 22 25 15 -17 -18 -19 -20 20 -22 -23 -24 -25 -26 -27 27 -29 -30 -31
leaf_value=-0.0463364809923381 0.24095619426617426 0.15555771525528264 0.21731851664327884 -0.036253883467926983 -0.032501359446804254 0.20161893551231072 -0.038721909367756803 0.2554527627905322 0.24894628776827271 -0.051579914344969939 0.0007847082379042041 -0.034860121733115576 0.24552823708709517 0.25778457258547283 -0.0068617696523393988 0.29265358302335176 0.059259101593944701 -0.025276180217136592 0.27178532654397181 0.23203508064797829 -0.054517189959185468 -0.047728566840809838 -0.045473216418426721 -0.055884824757733736 -0.011017963312317077 -0.0032140592709429768 0.20379648156777486 -0.045712906935923933 -0.033185052328264054 -0.047639614082982625
leaf_count=23156 1339 64 209 9841 3417 47 841 259 1410 155 187 128 70 66 602 55 105 1326 48 93 114 977 73 52 40 85 286 2222 548 185
internal_value=0 1.5382 -0.134977 0.19414 0.629893 1.13341 1.50581 -0.227712 1.88548 2.16953 2.31239 1.75885 -0.390512 -0.405255 0.79909 0.283516 2.32493 -0.121919 0.701766 -0.237366 1.00423 -0.271135 1.45572 1.76515 2.27634 1.33658 -0.419115 -0.122976 0.501234 1.27409
internal_count=48000 2640 45360 18669 8401 4777 3404 10268 2563 1599 1645 427 26691 26548 918 657 1444 1373 235 3624 207 1041 143 261 299 151 26397 3241 1019 471
shrinkage=0.1


Tree=26
num_leaves=31
num_cat=0
split_feature=101 97 243 104 213 94 99 269 267 245 92 210 272 106 239 242 622 514 298 131 329 402 178 416 239 216 293 402 295 155
split_gain=3210.4 1971.14 861.888 713.479 636.23 611.87 346.828 163.613 133.3 116.138 115.946 115.281 88.662 50.4595 38.8051 34.2827 31.6998 30.8242 82.6579 73.3469 98.087 99.1919 43.4186 34.882 35.7459 25.7402 25.4278 24.427 23.903 22.6938
threshold=0.0058823532890528449 1.0000000180025095e-35 0.06862745434045793 0.076470591127872481 0.0058823532890528449 0.0058823532890528449 0.33921569585800176 0.44901961088180548 0.46862745285034185 0.1392156928777695 0.045098040252923972 0.10000000149011613 1.0000000180025095e-35 0.017647059634327892 0.017647059634327892 0.16666667163372043 0.080392159521579756 0.52352944016456615 0.013725490774959328 0.041176471859216697 1.0000000180025095e-35 0.080392159521579756 0.10000000149011613 0.36666667461395269 0.14313726127147677 0.060784315690398223 0.95098039507865917 0.9941176474094392 0.21372549235820773 0.86470589041709911
decision_type=2 2 2 2 2 2 2 2 2 2 2 2 2 2 2 2 2 2 2 2 2 2 2 2 2 2 2 2 2 2
left_child=1 3 7 5 8 6 10 9 25 16 13 -7 14 17 -5 28 -2 -1 19 23 21 -21 -23 27 -25 -3 -9 -19 -8 -29
right_child=2 4 -4 12 -6 11 15 26 -10 -11 -12 -13 -14 -15 -16 -17 -18 18 -20 20 -22 22 -24 24 -26 -27 -28 29 -30 -31
leaf_value=-0.053202509614887344 0.22797640661379936 0.22969004128926052 -0.042965245238233474 0.010540454575428487 -0.042103080065135239 0.22791938903364609 0.2467711420320188 -0.041316320960265794 -0.011399517293874338 -0.028110540758492515 0.21525788992156447 -0.049463599689254595 -0.048645653782356191 0.12762984912219741 0.22671906722721721 -0.055997705824989023 -0.0059667007062839741 -0.039535156230511931 -0.050549177197221323 -0.030947630343016466 -0.048677163321410422 0.30681962121386575 -0.032710499867803659 0.23002383766952478 -0.043741786656504862 0.0020863139778610294 0.23464036393750587 0.0037565781607502798 0.038472798902299016 0.23513433541332684
leaf_count=32182 2355 1261 983 45 775 312 149 168 142 107 56 107 84 69 376 27 27 1422 6608 98 208 135 23 52 49 23 20 74 29 34
internal_value=0 -0.227295 1.69902 -0.375875 1.56809 -0.422921 -0.463103 2.11221 2.13443 2.20271 -0.484677 1.85565 1.84636 -0.49143 2.11499 1.98489 2.26203 -0.495827 -0.364357 0.0544678 0.864082 1.719 2.65912 -0.202577 1.09094 2.2693 -0.0909469 -0.303382 2.2197 0.766833
internal_count=48000 44340 3660 42139 2201 41634 41215 2677 1426 2489 41010 419 505 40954 421 205 2382 40885 8703 2095 464 256 158 1631 101 1284 188 1530 178 108
shrinkage=0.1


Tree=27
num_leaves=31
num_cat=0
split_feature=711 742 404 708 716 432 405 458 713 404 182 402 311 377 441 231 317 705 231 746 433 205 459 318 545 399 259 183 269 377
split_gain=2437.39 1552.58 1375.38 824.535 507.072 403.743 318.063 284.019 195.48 187.828 167.885 124.321 81.7059 75.8258 67.604 62.8039 62.297 61.5647 56.978 51.5675 58.4537 50.5144 49.3078 47.1299 73.4903 46.0824 44.4496 44.4469 43.3807 43.0623
threshold=1.0000000180025095e-35 0.0058823532890528449 1.0000000180025095e-35 0.045098040252923972 1.0000000180025095e-35 0.025490196421742443 0.045098040252923972 0.2019607871770859 0.021568628028035167 0.013725490774959328 0.26862746477127081 0.025490196421742443 0.0098039219155907648 0.24117647111415866 0.20588235557079318 0.084313727915287032 0.076470591127872481 0.0098039219155907648 0.0058823532890528449 0.21372549235820773 1.0000000180025095e-35 0.041176471859216697 0.10784313827753068 1.0000000180025095e-35 0.15098039805889132 0.4450980424880982 0.39019608497619634 1.0000000180025095e-35 0.66078433394432079 0.23725490272045138
decision_type=2 2 2 2 2 2 2 2 2 2 2 2 2 2 2 2 2 2 2 2 2 2 2 2 2 2 2 2 2 2
left_child=1 3 7 4 8 10 22 13 12 -5 29 21 17 -2 -7 -9 -14 19 -8 -1 -21 27 -3 24 -4 -16 -24 -10 -26 -6
right_child=2 6 23 9 5 14 18 15 11 -11 -12 -13 16 -15 25 -17 -18 -19 -20 20 -22 -23 26 -25 28 -27 -28 -29 -30 -31
leaf_value=-0.050201044434680847 0.22437064620421687 0.22787127453367306 -0.04529152010098448 0.21190663088394512 0.22348857319817395 -0.040124538632124229 -0.045037633842401809 -0.024247881848553796 0.21213106556571454 -0.0069466067915500366 0.015915195895488871 -0.014381204527400099 -0.049205293902062713 0.034904306634154426 0.29744269568786674 0.24905768671689543 0.21429364633080528 0.17362766240940491 0.18214390259974197 0.22072403263700477 -0.055280140194633745 0.23750758498341359 0.0045448747461356393 -0.041485482343193519 0.023787620517984404 -0.01916193885843508 0.26909804568017365 -0.0011577622833476564 0.22347469586683447 0.052652324938711165
leaf_count=37090 2276 871 266 522 526 1360 376 340 57 285 315 596 89 105 47 36 83 44 50 66 91 127 92 1803 94 46 36 131 103 77
internal_value=0 -0.213005 1.29221 -0.319242 -0.378794 0.599836 1.70731 2.01398 -0.452873 1.6007 1.55489 0.559643 -0.482565 2.19072 -0.259049 0.122758 1.00747 -0.491246 -0.0749997 -0.495646 0.797053 1.51368 2.15461 -0.22873 0.399259 1.57553 0.908756 0.767777 1.33476 2.07101
internal_count=48000 42977 5023 41552 40745 2371 1425 2757 38374 807 918 911 37463 2381 1453 376 172 37291 426 37247 157 315 999 2266 463 93 128 188 197 603
shrinkage=0.1


Tree=28
num_leaves=31
num_cat=0
split_feature=487 656 376 267 429 321 407 290 429 267 276 403 542 489 687 266 273 485 377 573 381 378 540 319 293 345 516 466 457 579
split_gain=1196.58 2366.51 804.696 484.343 380.869 212.192 157.723 135.054 98.3534 95.8087 91.3302 85.2513 92.0402 80.2207 225.594 175.856 79.2078 66.2986 212.312 84.2851 61.5914 60.0018 63.176 58.4506 76.7847 223.749 55.6528 55.3029 54.4397 46.4645
threshold=1.0000000180025095e-35 0.033333335071802146 0.0098039219155907648 0.82941177487373363 0.77843138575553905 0.53529414534568798 0.041176471859216697 0.052941177040338523 0.70000001788139354 0.7705882489681245 0.0058823532890528449 0.31568628549575811 0.033333335071802146 0.55490198731422435 0.041176471859216697 0.64901962876319896 0.1705882400274277 0.30784314870834356 0.82549020648002636 0.11176470667123796 1.0000000180025095e-35 0.69215688109397899 0.013725490774959328 1.0000000180025095e-35 0.36666667461395269 0.013725490774959328 0.0098039219155907648 0.7235294282436372 0.40980392694473272 0.076470591127872481
decision_type=2 2 2 2 2 2 2 2 2 2 2 2 2 2 2 2 2 2 2 2 2 2 2 2 2 2 2 2 2 2
left_child=13 10 5 4 6 11 -4 16 -9 -7 -2 -3 -13 17 -15 26 -5 -1 -19 27 -12 -6 -23 24 25 -8 -16 -20 -14 -17
right_child=1 2 3 7 21 9 23 8 -10 -11 20 12 28 14 15 29 -18 18 19 -21 -22 22 -24 -25 -26 -27 -28 -29 -30 -31
leaf_value=-0.050634754216957206 -0.040408328886503447 -0.025910304993449713 0.062372170904188118 -0.02467491137541809 -0.031565950873023371 0.24600927211937396 -0.031195948258907747 0.1929360057272462 0.029118867863932713 0.0058647120725304411 -0.041532292403873974 -0.010310903199630711 0.25342335850979464 -0.035040256925641097 0.027170678355424905 -0.042531574142004994 0.14409461034313908 -0.043408323082790967 0.295896024093453 0.031175560508163905 0.15075870566723892 -0.012575900510355526 0.18719697391587151 0.23458446842127142 0.26954443863616268 0.24528102920516856 0.24541625060700634 0.060367374342100766 0.036176403348270443 0.21168366060969623
leaf_count=18193 12720 2440 323 968 415 191 279 334 325 129 143 352 112 3983 72 361 148 2422 148 273 196 155 145 2315 187 216 252 78 91 34
internal_value=0 0.380047 1.14477 1.54979 1.88312 0.175221 2.10719 0.544489 1.26177 1.71715 -0.365395 -0.0526919 0.732436 -0.380698 -0.0948134 1.01871 0.0213446 -0.448821 -0.102363 1.24882 0.757551 0.317184 1.01497 2.21915 1.69664 1.25048 2.05297 2.21216 1.73834 -0.130341
internal_count=48000 22184 9125 5810 4035 3315 3320 1775 659 320 13059 2995 555 25816 4702 719 1116 21114 2921 499 339 715 300 2997 682 495 324 226 203 395
shrinkage=0.1


Tree=29
num_leaves=31
num_cat=0
split_feature=156 211 345 596 370 409 432 319 487 377 543 598 470 549 519 718 208 541 192 721 154 371 541 204 239 405 354 540 183 318
split_gain=1523.58 1680.88 1050.72 943.414 508.518 319.468 220.433 206.75 192.921 254.875 185.476 137.675 112.46 105.654 104.516 104.373 111.801 88.5499 83.48 77.1764 62.8284 57.1504 53.0386 51.7156 50.2198 75.5568 117.558 87.1998 44.5968 39.5266
threshold=1.0000000180025095e-35 0.26078432798385626 1.0000000180025095e-35 0.033333335071802146 0.0098039219155907648 1.0000000180025095e-35 1.0000000180025095e-35 0.57058826088905346 0.013725490774959328 0.049019608646631248 0.76274511218070995 0.017647059634327892 0.0058823532890528449 0.013725490774959328 0.021568628028035167 0.025490196421742443 0.5000000149011613 0.033333335071802146 0.0058823532890528449 0.037254903465509422 0.1705882400274277 0.35098040103912359 0.10000000149011613 0.51960787177085888 0.59411767125129711 0.084313727915287032 0.10784313827753068 0.064705885946750655 0.82549020648002636 0.080392159521579756
decision_type=2 2 2 2 2 2 2 2 2 2 2 2 2 2 2 2 2 2 2 2 2 2 2 2 2 2 2 2 2 2
left_child=1 15 4 5 7 -4 8 21 9 22 12 -6 18 17 -11 19 -17 -9 20 24 23 -3 -7 -8 28 -26 -27 29 -1 -28
right_child=-2 2 3 -5 11 6 10 13 -10 14 -12 -13 -14 -15 -16 16 -18 -19 -20 -21 -22 -23 -24 -25 25 26 27 -29 -30 -31
leaf_value=-0.048536570011660202 -0.046900622593990526 -0.046473806341902964 0.0066183152456541008 -0.038753142893620973 0.21270847755053507 -0.044761030461340133 0.23636488995561178 0.1813698559640432 0.22371043716397063 0.0081023959746790008 -0.0015229498115009331 -0.024985896134723698 0.0080923855002248204 -0.027364212966204383 0.23114084737065221 -0.011614355946106306 0.20638867183902604 -0.041727081797455594 -0.046904220811662942 0.1942858332601991 0.035092635229005499 0.19884046163319391 0.22598063870802609 0.094946532519481208 -0.040782305249711104 -0.031874376889870021 0.078349588523740313 -0.048415189595931919 0.19584356913587728 0.29311341866635121
leaf_count=9170 23563 4204 581 1513 496 658 2705 342 407 144 202 172 122 347 304 379 148 131 61 62 91 34 30 114 1290 406 59 86 36 143
internal_value=0 0.383075 0.891939 1.38516 0.108789 1.70402 1.84191 -0.193944 1.17504 0.66936 2.09525 1.7068 2.18819 0.790609 1.76421 -0.322382 0.659241 1.3684 2.24712 -0.37657 2.28201 -0.431565 -0.287273 2.31941 -0.394464 -0.0486519 0.566282 1.61935 -0.473165 2.33905
internal_count=48000 24437 12658 6932 5726 5419 4838 5058 1543 1136 3295 668 3093 820 448 11779 527 473 2971 11252 2910 4238 688 2819 11190 1984 694 288 9206 202
shrinkage=0.1


Tree=30
num_leaves=31
num_cat=0
split_feature=407 358 512 489 462 328 455 514 490 438 510 298 326 371 244 347 332 485 351 358 267 626 410 511 351 510 328 541 629 654
split_gain=3671.3 1504.72 537.311 478.453 263.164 219.074 133.511 98.314 110.58 82.0853 74.503 69.7087 68.6025 61.0004 59.237 43.763 37.6884 37.3509 30.3427 30.1141 55.7355 29.0132 65.6086 27.1721 24.1096 23.5651 21.1775 19.2122 18.1045 19.184
threshold=1.0000000180025095e-35 0.017647059634327892 0.12352941557765008 1.0000000180025095e-35 0.029411765746772293 0.033333335071802146 0.0058823532890528449 0.55098041892051708 1.0000000180025095e-35 0.24117647111415866 0.8019607961177827 0.24509803950786593 0.71960785984992992 0.11176470667123796 0.0058823532890528449 0.88431373238563549 0.24901961535215381 0.58627453446388256 0.86862745881080639 0.9784313738346101 0.92352941632270824 0.021568628028035167 0.10784313827753068 0.83333334326744091 0.70784315466880809 0.29607844352722174 0.1705882400274277 0.36666667461395269 0.025490196421742443 0.12352941557765008
decision_type=2 2 2 2 2 2 2 2 2 2 2 2 2 2 2 2 2 2 2 2 2 2 2 2 2 2 2 2 2 2
left_child=1 2 7 5 6 12 9 10 11 14 -1 26 16 -12 -3 -6 -4 -14 28 -2 -21 22 -8 -17 -13 -22 -9 -19 29 -7
right_child=19 4 3 -5 15 18 21 8 -10 -11 13 24 17 -15 -16 23 -18 27 -20 20 25 -23 -24 -25 -26 -27 -28 -29 -30 -31
leaf_value=-0.050785863818802096 -0.052240686535662641 0.0070844558692995984 -0.045284749056043842 -0.03840353379172462 -0.020790389907993506 0.029268725324138933 0.17489484887854698 -0.025250217351440854 -0.0478856252165622 -0.03500434771795221 -0.032393581468855813 0.21405556682229232 -0.031345841976735588 0.18682414443275752 0.18005876927092607 -0.0031464917372896447 0.21104422341243231 -0.030952074777672142 0.01027757883146292 -0.042202724141543857 -0.028107470732027837 0.19114051221202669 -0.010565300033191479 0.21327714452980137 -0.032151395952013391 0.18505850346497532 0.15588290092065243 0.2018166776219435 0.19030276067219376 0.20723228645205599
leaf_count=4760 34218 127 447 1347 488 66 311 168 476 232 157 151 59 81 204 52 20 22 49 449 38 2748 117 52 26 64 31 99 912 29
internal_value=0 0.864681 0.217812 0.87098 1.62108 1.40366 1.74576 -0.278442 0.428013 0.825432 -0.426178 1.17645 0.286278 0.744629 1.32183 0.132144 -0.261217 1.24979 1.79389 -0.511952 0.0382772 1.85666 1.40266 1.30709 1.93295 1.27873 0.144072 1.75685 1.84207 1.0218
internal_count=48000 13231 8900 3050 4331 1703 3739 5850 852 563 4998 376 647 238 331 592 467 180 1056 34769 551 3176 428 104 177 102 199 121 1007 95
shrinkage=0.1


Tree=31
num_leaves=31
num_cat=0
split_feature=437 406 234 402 149 301 406 353 403 319 323 466 462 353 378 243 511 323 213 289 512 321 548 383 492 550 294 322 205 487
split_gain=2852.56 2470.39 1016.5 421.867 231.268 166.538 123.927 133.738 118.339 71.3593 68.4695 188.656 121.479 63.9106 62.2899 59.8039 52.0547 48.2008 43.5858 35.9405 34.1365 33.4318 24.6454 23.3597 23.3187 22.1528 35.7724 21.5644 17.7173 16.8703
threshold=1.0000000180025095e-35 0.90000000596046459 1.0000000180025095e-35 1.0000000180025095e-35 0.037254903465509422 0.029411765746772293 0.4921568632125855 1.0000000180025095e-35 0.16274510324001315 0.19803921878337863 0.97450980544090282 0.0098039219155907648 0.9784313738346101 1.0000000180025095e-35 0.97058823704719555 1.0000000180025095e-35 0.46470588445663458 0.94705882668495189 1.0000000180025095e-35 0.041176471859216697 0.076470591127872481 0.50392159819602977 0.029411765746772293 0.1705882400274277 0.63333335518836986 0.017647059634327892 0.70000001788139354 0.096078433096408858 0.53529414534568798 0.97058823704719555
decision_type=2 2 2 2 2 2 2 2 2 2 2 2 2 2 2 2 2 2 2 2 2 2 2 2 2 2 2 2 2 2
left_child=1 6 3 4 5 9 -1 8 20 16 -2 12 -12 18 -14 27 25 -5 21 23 24 -4 29 28 -8 -3 -27 -11 -16 -19
right_child=10 2 13 17 -6 -7 7 -9 -10 15 11 -13 14 -15 19 -17 -18 22 -20 -21 -22 -23 -24 -25 -26 26 -28 -29 -30 -31
